{"learner":{"attributes":{"scikit_learn":"{\"_estimator_type\": \"classifier\"}"},"feature_names":["SeniorCitizen","Partner","Dependents","tenure","MultipleLines","OnlineSecurity","OnlineBackup","DeviceProtection","TechSupport","StreamingTV","StreamingMovies","PaperlessBilling","MonthlyCharges","high_value_at_risk","num_services","InternetService_Fiber optic","InternetService_No","Contract_One year","Contract_Two year","PaymentMethod_Credit card (automatic)","PaymentMethod_Electronic check","PaymentMethod_Mailed check","tenure_group_Established","tenure_group_Loyal","tenure_group_New"],"feature_types":["int","int","int","float","int","int","int","int","int","int","int","int","float","int","int","int","int","int","int","int","int","int","int","int","int"],"gradient_booster":{"model":{"cats":{"enc":[],"feature_segments":[],"sorted_idx":[]},"gbtree_model_param":{"num_parallel_tree":"1","num_trees":"200"},"iteration_indptr":[0,1,2,3,4,5,6,7,8,9,10,11,12,13,14,15,16,17,18,19,20,21,22,23,24,25,26,27,28,29,30,31,32,33,34,35,36,37,38,39,40,41,42,43,44,45,46,47,48,49,50,51,52,53,54,55,56,57,58,59,60,61,62,63,64,65,66,67,68,69,70,71,72,73,74,75,76,77,78,79,80,81,82,83,84,85,86,87,88,89,90,91,92,93,94,95,96,97,98,99,100,101,102,103,104,105,106,107,108,109,110,111,112,113,114,115,116,117,118,119,120,121,122,123,124,125,126,127,128,129,130,131,132,133,134,135,136,137,138,139,140,141,142,143,144,145,146,147,148,149,150,151,152,153,154,155,156,157,158,159,160,161,162,163,164,165,166,167,168,169,170,171,172,173,174,175,176,177,178,179,180,181,182,183,184,185,186,187,188,189,190,191,192,193,194,195,196,197,198,199,200],"tree_info":[0,0,0,0,0,0,0,0,0,0,0,0,0,0,0,0,0,0,0,0,0,0,0,0,0,0,0,0,0,0,0,0,0,0,0,0,0,0,0,0,0,0,0,0,0,0,0,0,0,0,0,0,0,0,0,0,0,0,0,0,0,0,0,0,0,0,0,0,0,0,0,0,0,0,0,0,0,0,0,0,0,0,0,0,0,0,0,0,0,0,0,0,0,0,0,0,0,0,0,0,0,0,0,0,0,0,0,0,0,0,0,0,0,0,0,0,0,0,0,0,0,0,0,0,0,0,0,0,0,0,0,0,0,0,0,0,0,0,0,0,0,0,0,0,0,0,0,0,0,0,0,0,0,0,0,0,0,0,0,0,0,0,0,0,0,0,0,0,0,0,0,0,0,0,0,0,0,0,0,0,0,0,0,0,0,0,0,0,0,0,0,0,0,0,0,0,0,0,0,0],"trees":[{"base_weights":[4.1655772E-3,-7.8775203E-1,9.1996074E-1,5.4810035E-1,-1.2207562E0,1.2307272E0,5.1208746E-1,9.6734107E-1,-5.2492697E-2,-7.9027766E-1,-1.9859054E0,-3.4545947E-2,1.2853607E0,-1.5765975E0,6.0530305E-1,1.0106466E0,-1.4029108E-1,3.9158642E-1,-6.012871E-1,-1.0855E0,-1.4924464E-1,-2.2287436E0,-1.3574077E0,3.607464E-1,-1.4226065E0,1.3284122E0,7.875324E-1,1.864987E-3,-1.7147818E0,2.8859946E-1,8.127998E-1,9.240235E-3,1.3901427E-2,-8.872362E-3,5.2417903E-3,8.7092636E-4,8.375686E-3,-1.1310885E-2,3.3065404E-3,-1.3853726E-2,-5.2778726E-3,2.8740217E-3,-6.444471E-3,-2.2780502E-2,-1.595798E-2,-1.0339256E-2,-2.0032104E-2,5.368415E-3,-6.8180016E-3,4.742152E-3,-1.9641234E-2,1.5195065E-2,1.2506119E-2,3.6984906E-3,1.3405398E-2,-2.0265447E-2,-4.911137E-3,4.223026E-3,-4.1081863E-3,8.942862E-3,7.8644237E-4],"categories":[],"categories_nodes":[],"categories_segments":[],"categories_sizes":[],"default_left":[0,0,0,0,0,0,0,0,0,0,0,0,0,0,0,0,0,0,0,0,0,0,0,0,0,0,0,0,0,0,0,0,0,0,0,0,0,0,0,0,0,0,0,0,0,0,0,0,0,0,0,0,0,0,0,0,0,0,0,0,0],"id":0,"left_children":[1,3,5,7,9,11,13,15,17,19,21,23,25,27,29,31,33,35,37,39,41,43,45,47,49,51,53,-1,55,57,59,-1,-1,-1,-1,-1,-1,-1,-1,-1,-1,-1,-1,-1,-1,-1,-1,-1,-1,-1,-1,-1,-1,-1,-1,-1,-1,-1,-1,-1,-1],"loss_changes":[1.7744465E3,7.596302E2,1.4318604E2,8.109916E1,3.2491943E2,4.4510254E1,9.6816345E1,9.236893E0,3.2714767E1,1.201991E2,5.134253E1,1.5656681E1,1.2170105E1,5.5121536E0,3.0786179E1,4.718155E0,4.4418845E0,1.0012711E1,2.9999704E1,7.2068726E1,4.379943E1,4.334839E0,1.9202866E1,4.45625E0,7.422943E0,6.5162354E0,1.140873E1,0E0,6.5817337E0,1.7792023E1,1.6958252E1,0E0,0E0,0E0,0E0,0E0,0E0,0E0,0E0,0E0,0E0,0E0,0E0,0E0,0E0,0E0,0E0,0E0,0E0,0E0,0E0,0E0,0E0,0E0,0E0,0E0,0E0,0E0,0E0,0E0,0E0],"parents":[2147483647,0,0,1,1,2,2,3,3,4,4,5,5,6,6,7,7,8,8,9,9,10,10,11,11,12,12,13,13,14,14,15,15,16,16,17,17,18,18,19,19,20,20,21,21,22,22,23,23,24,24,25,25,26,26,28,28,29,29,30,30],"right_children":[2,4,6,8,10,12,14,16,18,20,22,24,26,28,30,32,34,36,38,40,42,44,46,48,50,52,54,-1,56,58,60,-1,-1,-1,-1,-1,-1,-1,-1,-1,-1,-1,-1,-1,-1,-1,-1,-1,-1,-1,-1,-1,-1,-1,-1,-1,-1,-1,-1,-1,-1],"split_conditions":[1E0,-1.0823982E0,-6.749042E-1,1E0,1E0,1E0,1E0,-2.7899173E-1,-1.2453958E0,1E0,8.918726E-1,-8.3790183E-1,1E0,-6.341548E-1,1E0,1E0,1E0,1E0,-1.3103487E0,2E0,1E0,1E0,1.6070621E0,3.2553962E-1,3.4899544E-2,-1.2453958E0,9.63287E-1,1.864987E-3,4.6670765E-1,7.9207414E-1,9.5507175E-1,9.240235E-3,1.3901427E-2,-8.872362E-3,5.2417903E-3,8.7092636E-4,8.375686E-3,-1.1310885E-2,3.3065404E-3,-1.3853726E-2,-5.2778726E-3,2.8740217E-3,-6.444471E-3,-2.2780502E-2,-1.595798E-2,-1.0339256E-2,-2.0032104E-2,5.368415E-3,-6.8180016E-3,4.742152E-3,-1.9641234E-2,1.5195065E-2,1.2506119E-2,3.6984906E-3,1.3405398E-2,-2.0265447E-2,-4.911137E-3,4.223026E-3,-4.1081863E-3,8.942862E-3,7.8644237E-4],"split_indices":[13,3,3,8,18,15,15,12,3,20,12,3,5,3,20,0,4,11,12,10,6,20,3,12,12,3,12,0,12,3,3,0,0,0,0,0,0,0,0,0,0,0,0,0,0,0,0,0,0,0,0,0,0,0,0,0,0,0,0,0,0],"split_type":[0,0,0,0,0,0,0,0,0,0,0,0,0,0,0,0,0,0,0,0,0,0,0,0,0,0,0,0,0,0,0,0,0,0,0,0,0,0,0,0,0,0,0,0,0,0,0,0,0,0,0,0,0,0,0,0,0,0,0,0,0],"sum_hessian":[2.4447224E3,1.3111063E3,1.1336161E3,3.2088492E2,9.902214E2,6.422535E2,4.913626E2,1.886136E2,1.3227133E2,6.349991E2,3.5522226E2,2.6599354E1,6.156541E2,2.0312233E1,4.7105035E2,1.8160104E2,7.012557E0,7.326913E1,5.90022E1,4.342949E2,2.0070421E2,2.5438655E2,1.0083573E2,2.1279482E1,5.3198705E0,5.6511536E2,5.0538773E1,1.4508739E0,1.886136E1,1.8740454E2,2.8364584E2,1.5064906E2,3.0951975E1,3.14356E0,3.8689969E0,4.425165E1,2.9017477E1,3.7480907E1,2.1521296E1,2.814695E2,1.5282538E2,1.06881035E2,9.382317E1,2.3359068E2,2.0795858E1,6.8916504E1,3.1919224E1,1.8619547E1,2.6599352E0,1.2090615E0,4.1108093E0,1.5814525E2,4.069701E2,2.9742914E1,2.0795858E1,1.45087385E1,4.3526216E0,1.5766162E2,2.9742914E1,2.5511198E2,2.8533852E1],"tree_param":{"num_deleted":"0","num_feature":"25","num_nodes":"61","size_leaf_vector":"1"}},{"base_weights":[4.114925E-3,-7.7884156E-1,9.123267E-1,5.432338E-1,-1.206036E0,1.221235E0,5.074244E-1,9.594635E-1,-5.194913E-2,-7.8130686E-1,-1.9594134E0,-3.478755E-2,1.2755941E0,-1.557864E0,5.9993714E-1,1.0025101E0,-1.3931471E-1,3.8806635E-1,-5.9477836E-1,-1.072611E0,-1.4772902E-1,-2.1980057E0,-1.3409525E0,3.5731658E-1,-1.407773E0,1.3184034E0,7.810768E-1,1.8543195E-3,-1.6941229E0,2.8586608E-1,8.05906E-1,9.163918E-3,1.3801149E-2,-8.794404E-3,5.204107E-3,8.6254335E-4,8.307082E-3,3.9396794E-3,-1.0825225E-2,-1.368192E-2,-5.2204905E-3,2.8470291E-3,-6.3733733E-3,-2.2463627E-2,-1.5762936E-2,-1.0218644E-2,-1.9769771E-2,5.3224335E-3,-6.762406E-3,4.7184387E-3,-1.9428795E-2,1.3973019E-2,1.1367808E-2,3.6651061E-3,1.3308969E-2,-2.0008609E-2,-4.8676864E-3,4.1842717E-3,-4.0655164E-3,8.868311E-3,7.789527E-4],"categories":[],"categories_nodes":[],"categories_segments":[],"categories_sizes":[],"default_left":[0,0,0,0,0,0,0,0,0,0,0,0,0,0,0,0,0,0,0,0,0,0,0,0,0,0,0,0,0,0,0,0,0,0,0,0,0,0,0,0,0,0,0,0,0,0,0,0,0,0,0,0,0,0,0,0,0,0,0,0,0],"id":1,"left_children":[1,3,5,7,9,11,13,15,17,19,21,23,25,27,29,31,33,35,37,39,41,43,45,47,49,51,53,-1,55,57,59,-1,-1,-1,-1,-1,-1,-1,-1,-1,-1,-1,-1,-1,-1,-1,-1,-1,-1,-1,-1,-1,-1,-1,-1,-1,-1,-1,-1,-1,-1],"loss_changes":[1.7397599E3,7.427299E2,1.4105579E2,7.9711655E1,3.1632166E2,4.3864258E1,9.491921E1,9.092407E0,3.20658E1,1.1738846E2,4.979895E1,1.5360284E1,1.199408E1,5.389759E0,3.0272324E1,4.662369E0,4.3706727E0,9.843431E0,2.9393097E1,7.026013E1,4.2897896E1,4.16687E0,1.8695877E1,4.3852816E0,7.286517E0,6.5040894E0,1.1243551E1,0E0,6.4021645E0,1.7454227E1,1.6675812E1,0E0,0E0,0E0,0E0,0E0,0E0,0E0,0E0,0E0,0E0,0E0,0E0,0E0,0E0,0E0,0E0,0E0,0E0,0E0,0E0,0E0,0E0,0E0,0E0,0E0,0E0,0E0,0E0,0E0,0E0],"parents":[2147483647,0,0,1,1,2,2,3,3,4,4,5,5,6,6,7,7,8,8,9,9,10,10,11,11,12,12,13,13,14,14,15,15,16,16,17,17,18,18,19,19,20,20,21,21,22,22,23,23,24,24,25,25,26,26,28,28,29,29,30,30],"right_children":[2,4,6,8,10,12,14,16,18,20,22,24,26,28,30,32,34,36,38,40,42,44,46,48,50,52,54,-1,56,58,60,-1,-1,-1,-1,-1,-1,-1,-1,-1,-1,-1,-1,-1,-1,-1,-1,-1,-1,-1,-1,-1,-1,-1,-1,-1,-1,-1,-1,-1,-1],"split_conditions":[1E0,-1.0823982E0,-6.749042E-1,1E0,1E0,1E0,1E0,-2.7899173E-1,-1.2453958E0,1E0,8.918726E-1,-8.3790183E-1,1E0,-6.341548E-1,1E0,1E0,1E0,1E0,1E0,2E0,1E0,1E0,1.6070621E0,3.2553962E-1,3.4899544E-2,-1.0008994E0,9.63287E-1,1.8543195E-3,4.6670765E-1,7.9207414E-1,9.5507175E-1,9.163918E-3,1.3801149E-2,-8.794404E-3,5.204107E-3,8.6254335E-4,8.307082E-3,3.9396794E-3,-1.0825225E-2,-1.368192E-2,-5.2204905E-3,2.8470291E-3,-6.3733733E-3,-2.2463627E-2,-1.5762936E-2,-1.0218644E-2,-1.9769771E-2,5.3224335E-3,-6.762406E-3,4.7184387E-3,-1.9428795E-2,1.3973019E-2,1.1367808E-2,3.6651061E-3,1.3308969E-2,-2.0008609E-2,-4.8676864E-3,4.1842717E-3,-4.0655164E-3,8.868311E-3,7.789527E-4],"split_indices":[13,3,3,8,18,15,15,12,3,20,12,3,5,3,20,0,4,11,10,10,6,20,3,12,12,3,12,0,12,3,3,0,0,0,0,0,0,0,0,0,0,0,0,0,0,0,0,0,0,0,0,0,0,0,0,0,0,0,0,0,0],"split_type":[0,0,0,0,0,0,0,0,0,0,0,0,0,0,0,0,0,0,0,0,0,0,0,0,0,0,0,0,0,0,0,0,0,0,0,0,0,0,0,0,0,0,0,0,0,0,0,0,0,0,0,0,0,0,0,0,0,0,0,0,0],"sum_hessian":[2.4446099E3,1.3129106E3,1.1316992E3,3.205635E2,9.923471E2,6.40802E2,4.9089716E2,1.8828088E2,1.3228262E2,6.358903E2,3.5645676E2,2.6597607E1,6.142044E2,2.0367449E1,4.7052972E2,1.8126703E2,7.013854E0,7.3217705E1,5.906491E1,4.3513336E2,2.0075697E2,2.5538094E2,1.0107583E2,2.1264528E1,5.3330793E0,5.6373694E2,5.0467484E1,1.450383E0,1.8917065E1,1.873054E2,2.832243E2,1.5039426E2,3.0872763E1,3.1485515E0,3.8653028E0,4.424467E1,2.8973036E1,1.9575027E1,3.9489883E1,2.82163E2,1.5297038E2,1.0682525E2,9.393172E1,2.3452621E2,2.0854717E1,6.904379E1,3.2032036E1,1.8601337E1,2.6631894E0,1.2080178E0,4.1250615E0,3.883434E2,1.753935E2,2.9722916E1,2.0744568E1,1.4560598E1,4.3564663E0,1.575405E2,2.9764914E1,2.5469452E2,2.8529789E1],"tree_param":{"num_deleted":"0","num_feature":"25","num_nodes":"61","size_leaf_vector":"1"}},{"base_weights":[4.064505E-3,-7.7010965E-1,9.0479374E-1,5.384296E-1,-1.1916451E0,1.2118882E0,5.0281405E-1,9.516827E-1,-5.140475E-2,-7.72487E-1,-1.9337448E0,-3.502157E-2,1.2659787E0,-1.5396067E0,5.946273E-1,9.944738E-1,-1.3834636E-1,3.845808E-1,-5.883507E-1,-1.059967E0,-1.4623104E-1,-2.168321E0,-1.3248597E0,3.5392156E-1,-1.3932832E0,1.3085536E0,7.7469546E-1,1.843716E-3,-1.6740104E0,2.8315952E-1,7.99088E-1,9.088473E-3,1.3702588E-2,-8.717441E-3,5.166726E-3,8.542411E-4,8.239207E-3,3.9048952E-3,-1.0699961E-2,-1.3513891E-2,-5.1638517E-3,2.8202843E-3,-6.3032624E-3,-2.2157855E-2,-1.5572579E-2,-1.0100161E-2,-1.9515358E-2,5.276872E-3,-6.707405E-3,4.6948683E-3,-1.9221958E-2,1.498745E-2,1.23119205E-2,3.632022E-3,1.3214108E-2,-1.9759443E-2,-4.824689E-3,4.1458798E-3,-4.02335E-3,8.7945955E-3,7.7153166E-4],"categories":[],"categories_nodes":[],"categories_segments":[],"categories_sizes":[],"default_left":[0,0,0,0,0,0,0,0,0,0,0,0,0,0,0,0,0,0,0,0,0,0,0,0,0,0,0,0,0,0,0,0,0,0,0,0,0,0,0,0,0,0,0,0,0,0,0,0,0,0,0,0,0,0,0,0,0,0,0,0,0],"id":2,"left_children":[1,3,5,7,9,11,13,15,17,19,21,23,25,27,29,31,33,35,37,39,41,43,45,47,49,51,53,-1,55,57,59,-1,-1,-1,-1,-1,-1,-1,-1,-1,-1,-1,-1,-1,-1,-1,-1,-1,-1,-1,-1,-1,-1,-1,-1,-1,-1,-1,-1,-1,-1],"loss_changes":[1.705871E3,7.263124E2,1.3897528E2,7.834975E1,3.081172E2,4.3230835E1,9.3067604E1,8.950546E0,3.1429705E1,1.1466168E2,4.8347412E1,1.5071086E1,1.1822998E1,5.271675E0,2.9768585E1,4.608536E0,4.300717E0,9.677338E0,2.8763937E1,6.851785E1,4.201605E1,4.012329E0,1.821399E1,4.3154716E0,7.1542177E0,6.4432983E0,1.1082361E1,0E0,6.23098E0,1.7122906E1,1.6398941E1,0E0,0E0,0E0,0E0,0E0,0E0,0E0,0E0,0E0,0E0,0E0,0E0,0E0,0E0,0E0,0E0,0E0,0E0,0E0,0E0,0E0,0E0,0E0,0E0,0E0,0E0,0E0,0E0,0E0,0E0],"parents":[2147483647,0,0,1,1,2,2,3,3,4,4,5,5,6,6,7,7,8,8,9,9,10,10,11,11,12,12,13,13,14,14,15,15,16,16,17,17,18,18,19,19,20,20,21,21,22,22,23,23,24,24,25,25,26,26,28,28,29,29,30,30],"right_children":[2,4,6,8,10,12,14,16,18,20,22,24,26,28,30,32,34,36,38,40,42,44,46,48,50,52,54,-1,56,58,60,-1,-1,-1,-1,-1,-1,-1,-1,-1,-1,-1,-1,-1,-1,-1,-1,-1,-1,-1,-1,-1,-1,-1,-1,-1,-1,-1,-1,-1,-1],"split_conditions":[1E0,-1.0823982E0,-6.749042E-1,1E0,1E0,1E0,1E0,-2.7899173E-1,-1.2453958E0,1E0,8.918726E-1,-8.3790183E-1,1E0,-6.341548E-1,1E0,1E0,1E0,1E0,1E0,2E0,1E0,1E0,1.6070621E0,3.2553962E-1,3.4899544E-2,-1.2453958E0,9.63287E-1,1.843716E-3,4.6670765E-1,7.9207414E-1,9.5507175E-1,9.088473E-3,1.3702588E-2,-8.717441E-3,5.166726E-3,8.542411E-4,8.239207E-3,3.9048952E-3,-1.0699961E-2,-1.3513891E-2,-5.1638517E-3,2.8202843E-3,-6.3032624E-3,-2.2157855E-2,-1.5572579E-2,-1.0100161E-2,-1.9515358E-2,5.276872E-3,-6.707405E-3,4.6948683E-3,-1.9221958E-2,1.498745E-2,1.23119205E-2,3.632022E-3,1.3214108E-2,-1.9759443E-2,-4.824689E-3,4.1458798E-3,-4.02335E-3,8.7945955E-3,7.7153166E-4],"split_indices":[13,3,3,8,18,15,15,12,3,20,12,3,5,3,20,0,4,11,10,10,6,20,3,12,12,3,12,0,12,3,3,0,0,0,0,0,0,0,0,0,0,0,0,0,0,0,0,0,0,0,0,0,0,0,0,0,0,0,0,0,0],"split_type":[0,0,0,0,0,0,0,0,0,0,0,0,0,0,0,0,0,0,0,0,0,0,0,0,0,0,0,0,0,0,0,0,0,0,0,0,0,0,0,0,0,0,0,0,0,0,0,0,0,0,0,0,0,0,0,0,0,0,0,0,0],"sum_hessian":[2.4443206E3,1.3145842E3,1.1297363E3,3.20233E2,9.9435126E2,6.3931415E2,4.904222E2,1.8794234E2,1.3229068E2,6.3674255E2,3.5760873E2,2.659482E1,6.1271936E2,2.041925E1,4.7000296E2,1.8092735E2,7.0149765E0,7.31658E1,5.912488E1,4.3593564E2,2.0080692E2,2.5630478E2,1.0130393E2,2.1249407E1,5.3454137E0,5.6232446E2,5.0394913E1,1.4498929E0,1.8969357E1,1.872057E2,2.8279724E2,1.5013586E2,3.0791485E1,3.1533885E0,3.861588E0,4.4237743E1,2.8928057E1,1.956088E1,3.9564E1,2.828237E2,1.5311194E2,1.0676959E2,9.403732E1,2.353943E2,2.0910484E1,6.9166306E1,3.2137627E1,1.8583046E1,2.6663618E0,1.2069671E0,4.138447E0,1.5728036E2,4.0504407E2,2.9702915E1,2.0691996E1,1.4609127E1,4.3602304E0,1.5741924E2,2.978646E1,2.542715E2,2.8525753E1],"tree_param":{"num_deleted":"0","num_feature":"25","num_nodes":"61","size_leaf_vector":"1"}},{"base_weights":[4.0157735E-3,-7.615511E-1,8.973627E-1,5.3368384E-1,-1.1775714E0,1.2026882E0,4.9825564E-1,9.4399655E-1,-5.0867196E-2,-7.6381373E-1,-1.9088601E0,-3.5247773E-2,1.2565157E0,-1.5218068E0,5.893727E-1,9.865354E-1,-1.3738589E-1,3.8112926E-1,-5.820215E-1,-5.4710233E-1,-1.5859442E0,-2.1396358E0,-1.3091161E0,3.5056147E-1,-1.3791257E0,1.2988642E0,7.6838726E-1,1.833172E-3,-1.6544218E0,2.804796E-1,7.923445E-1,9.013884E-3,1.3605688E-2,2.7174228E-3,-1.3357517E-2,8.460174E-4,8.172052E-3,-1.0929482E-2,3.2301869E-3,-8.431494E-3,-2.9026874E-4,-1.0566058E-2,-2.0195596E-2,-2.1862617E-2,-1.5386726E-2,-9.983745E-3,-1.9268494E-2,5.2317306E-3,-6.652988E-3,4.6714423E-3,-1.9020513E-2,1.3773548E-2,1.1183517E-2,3.599241E-3,1.3120766E-2,-1.9517602E-2,-4.78214E-3,4.107846E-3,-3.9816806E-3,8.721703E-3,7.6418405E-4],"categories":[],"categories_nodes":[],"categories_segments":[],"categories_sizes":[],"default_left":[0,0,0,0,0,0,0,0,0,0,0,0,0,0,0,0,0,0,0,0,0,0,0,0,0,0,0,0,0,0,0,0,0,0,0,0,0,0,0,0,0,0,0,0,0,0,0,0,0,0,0,0,0,0,0,0,0,0,0,0,0],"id":3,"left_children":[1,3,5,7,9,11,13,15,17,19,21,23,25,27,29,31,33,35,37,39,41,43,45,47,49,51,53,-1,55,57,59,-1,-1,-1,-1,-1,-1,-1,-1,-1,-1,-1,-1,-1,-1,-1,-1,-1,-1,-1,-1,-1,-1,-1,-1,-1,-1,-1,-1,-1,-1],"loss_changes":[1.6727646E3,7.103565E2,1.3694513E2,7.701393E1,3.0028235E2,4.261017E1,9.126007E1,8.811188E0,3.0807343E1,1.1290079E2,4.6980957E1,1.4788877E1,1.1657166E1,5.1576767E0,2.9274643E1,4.556595E0,4.293071E0,9.514361E0,2.8181705E1,7.771733E1,2.8320496E1,3.869873E0,1.775563E1,4.246805E0,7.0258675E0,6.4205933E0,1.09249935E1,0E0,6.0676804E0,1.6797947E1,1.6127457E1,0E0,0E0,0E0,0E0,0E0,0E0,0E0,0E0,0E0,0E0,0E0,0E0,0E0,0E0,0E0,0E0,0E0,0E0,0E0,0E0,0E0,0E0,0E0,0E0,0E0,0E0,0E0,0E0,0E0,0E0],"parents":[2147483647,0,0,1,1,2,2,3,3,4,4,5,5,6,6,7,7,8,8,9,9,10,10,11,11,12,12,13,13,14,14,15,15,16,16,17,17,18,18,19,19,20,20,21,21,22,22,23,23,24,24,25,25,26,26,28,28,29,29,30,30],"right_children":[2,4,6,8,10,12,14,16,18,20,22,24,26,28,30,32,34,36,38,40,42,44,46,48,50,52,54,-1,56,58,60,-1,-1,-1,-1,-1,-1,-1,-1,-1,-1,-1,-1,-1,-1,-1,-1,-1,-1,-1,-1,-1,-1,-1,-1,-1,-1,-1,-1,-1,-1],"split_conditions":[1E0,-1.0823982E0,-6.749042E-1,1E0,1E0,1E0,1E0,-2.7899173E-1,-1.2453958E0,1E0,8.918726E-1,-8.3790183E-1,1E0,-6.341548E-1,1E0,1E0,1E0,1E0,-1.3103487E0,1E0,1E0,1E0,1.6070621E0,3.2553962E-1,3.4899544E-2,-1.0008994E0,9.63287E-1,1.833172E-3,4.6670765E-1,7.9207414E-1,9.5507175E-1,9.013884E-3,1.3605688E-2,2.7174228E-3,-1.3357517E-2,8.460174E-4,8.172052E-3,-1.0929482E-2,3.2301869E-3,-8.431494E-3,-2.9026874E-4,-1.0566058E-2,-2.0195596E-2,-2.1862617E-2,-1.5386726E-2,-9.983745E-3,-1.9268494E-2,5.2317306E-3,-6.652988E-3,4.6714423E-3,-1.9020513E-2,1.3773548E-2,1.1183517E-2,3.599241E-3,1.3120766E-2,-1.9517602E-2,-4.78214E-3,4.107846E-3,-3.9816806E-3,8.721703E-3,7.6418405E-4],"split_indices":[13,3,3,8,18,15,15,12,3,16,12,3,5,3,20,0,6,11,12,20,17,20,3,12,12,3,12,0,12,3,3,0,0,0,0,0,0,0,0,0,0,0,0,0,0,0,0,0,0,0,0,0,0,0,0,0,0,0,0,0,0],"split_type":[0,0,0,0,0,0,0,0,0,0,0,0,0,0,0,0,0,0,0,0,0,0,0,0,0,0,0,0,0,0,0,0,0,0,0,0,0,0,0,0,0,0,0,0,0,0,0,0,0,0,0,0,0,0,0,0,0,0,0,0,0],"sum_hessian":[2.4438608E3,1.3161306E3,1.1277301E3,3.1989352E2,9.962371E2,6.3779193E2,4.8993814E2,1.8759818E2,1.3229533E2,6.375567E2,3.586804E2,2.659102E1,6.112009E2,2.0467724E1,4.694704E2,1.8058224E2,7.015927E0,7.3113434E1,5.9181904E1,5.0587494E2,1.316818E2,2.5716006E2,1.0152034E2,2.123413E1,5.3568907E0,5.608798E2,5.032111E1,1.449403E0,1.901832E1,1.8710544E2,2.8236496E2,1.4987404E2,3.0708214E1,5.8067217E0,1.2092049E0,4.4230865E1,2.8882566E1,3.769445E1,2.1487453E1,3.2151956E2,1.8435538E2,6.08435E1,7.0838295E1,2.3619681E2,2.0963238E1,6.928416E1,3.223618E1,1.8564676E1,2.6694531E0,1.2059098E0,4.150981E0,3.862849E2,1.7459491E2,2.9682919E1,2.0638193E1,1.4654406E1,4.3639145E0,1.5729787E2,2.9807566E1,2.5384322E2,2.8521751E1],"tree_param":{"num_deleted":"0","num_feature":"25","num_nodes":"61","size_leaf_vector":"1"}},{"base_weights":[3.9562066E-3,-7.531755E-1,8.9002746E-1,5.2897114E-1,-1.1638116E0,1.1936252E0,4.9374786E-1,9.363687E-1,-5.0343905E-2,-7.5530154E-1,-1.8847225E0,-3.5466667E-2,1.247195E0,-1.504446E0,5.841721E-1,9.7869235E-1,-1.3733608E-1,3.777113E-1,-5.7580554E-1,-5.411572E-1,-1.5664202E0,-2.1119E0,-1.293709E0,3.4723565E-1,-1.3652893E0,1.2893244E0,7.621505E-1,1.8226893E-3,-1.6353357E0,2.7782595E-1,7.856736E-1,8.9401305E-3,1.3510401E-2,2.6953693E-3,-1.3267118E-2,8.378698E-4,8.105601E-3,3.8419124E-3,-1.0460057E-2,-8.335823E-3,-2.8736852E-4,-1.0444613E-2,-1.9933652E-2,-2.1577368E-2,-1.52052045E-2,-9.869336E-3,-1.9028837E-2,5.1870025E-3,-6.599143E-3,4.6481565E-3,-1.8824257E-2,1.4787574E-2,1.2123497E-2,3.5667582E-3,1.3028901E-2,-1.9282758E-2,-4.740031E-3,4.070166E-3,-3.940499E-3,8.649609E-3,7.5690274E-4],"categories":[],"categories_nodes":[],"categories_segments":[],"categories_sizes":[],"default_left":[0,0,0,0,0,0,0,0,0,0,0,0,0,0,0,0,0,0,0,0,0,0,0,0,0,0,0,0,0,0,0,0,0,0,0,0,0,0,0,0,0,0,0,0,0,0,0,0,0,0,0,0,0,0,0,0,0,0,0,0,0],"id":4,"left_children":[1,3,5,7,9,11,13,15,17,19,21,23,25,27,29,31,33,35,37,39,41,43,45,47,49,51,53,-1,55,57,59,-1,-1,-1,-1,-1,-1,-1,-1,-1,-1,-1,-1,-1,-1,-1,-1,-1,-1,-1,-1,-1,-1,-1,-1,-1,-1,-1,-1,-1,-1],"loss_changes":[1.6404452E3,6.948318E2,1.3496124E2,7.569935E1,2.927859E2,4.200128E1,8.949508E1,8.68898E0,3.0199436E1,1.10203705E2,4.5693848E1,1.4513433E1,1.14956665E1,5.0475616E0,2.8790283E1,4.5064087E0,4.236717E0,9.354432E0,2.7591814E1,7.599698E1,2.755899E1,3.7384033E0,1.731926E1,4.179259E0,6.9012966E0,6.378845E0,1.0771326E1,0E0,5.9117966E0,1.647921E1,1.5861267E1,0E0,0E0,0E0,0E0,0E0,0E0,0E0,0E0,0E0,0E0,0E0,0E0,0E0,0E0,0E0,0E0,0E0,0E0,0E0,0E0,0E0,0E0,0E0,0E0,0E0,0E0,0E0,0E0,0E0,0E0],"parents":[2147483647,0,0,1,1,2,2,3,3,4,4,5,5,6,6,7,7,8,8,9,9,10,10,11,11,12,12,13,13,14,14,15,15,16,16,17,17,18,18,19,19,20,20,21,21,22,22,23,23,24,24,25,25,26,26,28,28,29,29,30,30],"right_children":[2,4,6,8,10,12,14,16,18,20,22,24,26,28,30,32,34,36,38,40,42,44,46,48,50,52,54,-1,56,58,60,-1,-1,-1,-1,-1,-1,-1,-1,-1,-1,-1,-1,-1,-1,-1,-1,-1,-1,-1,-1,-1,-1,-1,-1,-1,-1,-1,-1,-1,-1],"split_conditions":[1E0,-1.0823982E0,-6.749042E-1,1E0,1E0,1E0,1E0,-2.7899173E-1,-1.2453958E0,1E0,8.918726E-1,-8.3790183E-1,1E0,-6.341548E-1,1E0,1E0,1E0,1E0,1E0,1E0,1E0,1E0,1.6070621E0,3.2553962E-1,3.4899544E-2,-1.2453958E0,9.63287E-1,1.8226893E-3,4.6670765E-1,7.9207414E-1,9.5507175E-1,8.9401305E-3,1.3510401E-2,2.6953693E-3,-1.3267118E-2,8.378698E-4,8.105601E-3,3.8419124E-3,-1.0460057E-2,-8.335823E-3,-2.8736852E-4,-1.0444613E-2,-1.9933652E-2,-2.1577368E-2,-1.52052045E-2,-9.869336E-3,-1.9028837E-2,5.1870025E-3,-6.599143E-3,4.6481565E-3,-1.8824257E-2,1.4787574E-2,1.2123497E-2,3.5667582E-3,1.3028901E-2,-1.9282758E-2,-4.740031E-3,4.070166E-3,-3.940499E-3,8.649609E-3,7.5690274E-4],"split_indices":[13,3,3,8,18,15,15,12,3,16,12,3,5,3,20,0,6,11,10,20,17,20,3,12,12,3,12,0,12,3,3,0,0,0,0,0,0,0,0,0,0,0,0,0,0,0,0,0,0,0,0,0,0,0,0,0,0,0,0,0,0],"split_type":[0,0,0,0,0,0,0,0,0,0,0,0,0,0,0,0,0,0,0,0,0,0,0,0,0,0,0,0,0,0,0,0,0,0,0,0,0,0,0,0,0,0,0,0,0,0,0,0,0,0,0,0,0,0,0,0,0,0,0,0,0],"sum_hessian":[2.4432415E3,1.3175603E3,1.1256813E3,3.1954453E2,9.9801575E2,6.36236E2,4.8944525E2,1.8724792E2,1.3229659E2,6.383418E2,3.5967395E2,2.6586231E1,6.096498E2,2.051295E1,4.689323E2,1.8023198E2,7.0159545E0,7.306062E1,5.9235966E1,5.063318E2,1.3201003E2,2.5794858E2,1.0172535E2,2.1218704E1,5.3675275E0,5.594037E2,5.024613E1,1.4489139E0,1.9064035E1,1.8700467E2,2.8192764E2,1.4960895E2,3.0623024E1,5.8038855E0,1.212069E0,4.4224037E1,2.8836586E1,1.953491E1,3.9701057E1,3.2196683E2,1.8436497E2,6.0946556E1,7.106347E1,2.3693555E2,2.101305E1,6.939747E1,3.2327885E1,1.8546238E1,2.6724658E0,1.2048459E0,4.1626816E0,1.563695E2,4.0303415E2,2.9662931E1,2.05832E1,1.4696515E1,4.3675213E0,1.5717642E2,2.9828236E1,2.5340987E2,2.8517776E1],"tree_param":{"num_deleted":"0","num_feature":"25","num_nodes":"61","size_leaf_vector":"1"}},{"base_weights":[3.8989119E-3,-7.449603E-1,8.8278884E-1,5.2431715E-1,-1.1503453E0,1.1847005E0,4.892899E-1,9.2883074E-1,-4.9819376E-2,-7.4692726E-1,-1.8612965E0,-3.5678737E-2,1.2380179E0,-1.4875072E0,5.7902485E-1,9.709422E-1,-1.3728024E-1,3.7432653E-1,-5.6966454E-1,-5.352933E-1,-1.5473835E0,-2.0850658E0,-1.2786264E0,3.4394315E-1,-1.3517627E0,1.2799356E0,7.5598335E-1,1.8122691E-3,-1.6167316E0,2.751982E-1,7.790742E-1,1.0317783E-2,5.146696E-3,-8.645789E-3,5.1341676E-3,-6.561855E-3,4.9160225E-3,-1.0685104E-2,3.1783308E-3,-8.241647E-3,-2.8449428E-4,-1.0325303E-2,-1.9679703E-2,-2.1301601E-2,-1.5027841E-2,-9.75688E-3,-1.8796053E-2,5.142677E-3,-6.545864E-3,4.6250136E-3,-1.8632991E-2,1.3580728E-2,1.1004218E-2,3.5345666E-3,1.2938471E-2,-1.9054607E-2,-4.6983557E-3,4.0328363E-3,-3.8997973E-3,8.5783005E-3,7.496902E-4],"categories":[],"categories_nodes":[],"categories_segments":[],"categories_sizes":[],"default_left":[0,0,0,0,0,0,0,0,0,0,0,0,0,0,0,0,0,0,0,0,0,0,0,0,0,0,0,0,0,0,0,0,0,0,0,0,0,0,0,0,0,0,0,0,0,0,0,0,0,0,0,0,0,0,0,0,0,0,0,0,0],"id":5,"left_children":[1,3,5,7,9,11,13,15,17,19,21,23,25,27,29,31,33,35,37,39,41,43,45,47,49,51,53,-1,55,57,59,-1,-1,-1,-1,-1,-1,-1,-1,-1,-1,-1,-1,-1,-1,-1,-1,-1,-1,-1,-1,-1,-1,-1,-1,-1,-1,-1,-1,-1,-1],"loss_changes":[1.6088589E3,6.797369E2,1.3302399E2,7.440854E1,2.856161E2,4.1404236E1,8.777136E1,8.568802E0,2.960344E1,1.0760553E2,4.4479736E1,1.4244527E1,1.133905E1,4.941147E0,2.8315216E1,4.489731E0,4.2374077E0,9.266676E0,2.7030321E1,7.4320984E1,2.68367E1,3.6170654E0,1.6903534E1,4.112812E0,6.7803507E0,6.3450317E0,1.0621223E1,0E0,5.762886E0,1.6166567E1,1.5600204E1,0E0,0E0,0E0,0E0,0E0,0E0,0E0,0E0,0E0,0E0,0E0,0E0,0E0,0E0,0E0,0E0,0E0,0E0,0E0,0E0,0E0,0E0,0E0,0E0,0E0,0E0,0E0,0E0,0E0,0E0],"parents":[2147483647,0,0,1,1,2,2,3,3,4,4,5,5,6,6,7,7,8,8,9,9,10,10,11,11,12,12,13,13,14,14,15,15,16,16,17,17,18,18,19,19,20,20,21,21,22,22,23,23,24,24,25,25,26,26,28,28,29,29,30,30],"right_children":[2,4,6,8,10,12,14,16,18,20,22,24,26,28,30,32,34,36,38,40,42,44,46,48,50,52,54,-1,56,58,60,-1,-1,-1,-1,-1,-1,-1,-1,-1,-1,-1,-1,-1,-1,-1,-1,-1,-1,-1,-1,-1,-1,-1,-1,-1,-1,-1,-1,-1,-1],"split_conditions":[1E0,-1.0823982E0,-6.749042E-1,1E0,1E0,1E0,1E0,-2.7899173E-1,-1.2453958E0,1E0,8.918726E-1,-8.3790183E-1,1E0,-6.341548E-1,1E0,1E0,1E0,-1.5129664E0,-1.3103487E0,1E0,1E0,1E0,1.6070621E0,3.2553962E-1,3.4899544E-2,-1.0008994E0,9.63287E-1,1.8122691E-3,4.6670765E-1,7.9207414E-1,9.5507175E-1,1.0317783E-2,5.146696E-3,-8.645789E-3,5.1341676E-3,-6.561855E-3,4.9160225E-3,-1.0685104E-2,3.1783308E-3,-8.241647E-3,-2.8449428E-4,-1.0325303E-2,-1.9679703E-2,-2.1301601E-2,-1.5027841E-2,-9.75688E-3,-1.8796053E-2,5.142677E-3,-6.545864E-3,4.6250136E-3,-1.8632991E-2,1.3580728E-2,1.1004218E-2,3.5345666E-3,1.2938471E-2,-1.9054607E-2,-4.6983557E-3,4.0328363E-3,-3.8997973E-3,8.5783005E-3,7.496902E-4],"split_indices":[13,3,3,8,18,15,15,12,3,16,12,3,5,3,20,5,4,12,12,20,17,20,3,12,12,3,12,0,12,3,3,0,0,0,0,0,0,0,0,0,0,0,0,0,0,0,0,0,0,0,0,0,0,0,0,0,0,0,0,0,0],"split_type":[0,0,0,0,0,0,0,0,0,0,0,0,0,0,0,0,0,0,0,0,0,0,0,0,0,0,0,0,0,0,0,0,0,0,0,0,0,0,0,0,0,0,0,0,0,0,0,0,0,0,0,0,0,0,0,0,0,0,0,0,0],"sum_hessian":[2.4424622E3,1.3188699E3,1.1235923E3,3.191874E2,9.9968256E2,6.346484E2,4.8894394E2,1.8689258E2,1.3229482E2,6.39091E2,3.6059155E2,2.6580475E1,6.0806793E2,2.0555012E1,4.6838895E2,1.7987671E2,7.015869E0,7.30074E1,5.928741E1,5.0677313E2,1.3231784E2,2.5867227E2,1.01919266E2,2.1203135E1,5.3773417E0,5.578979E2,5.0170017E1,1.4484255E0,1.9106586E1,1.8690341E2,2.8148553E2,1.5760187E2,2.2274841E1,3.1577191E0,3.85815E0,6.9900417E0,6.601736E1,3.7823544E1,2.1463865E1,3.2239868E2,1.8437447E2,6.104534E1,7.127251E1,2.3761229E2,2.1060001E1,6.950635E1,3.2412918E1,1.8527733E1,2.6754003E0,1.2037756E0,4.173566E0,3.8413116E2,1.7376674E2,2.9642956E1,2.0527061E1,1.4735536E1,4.371051E0,1.5705493E2,2.9848482E1,2.529717E2,2.8513834E1],"tree_param":{"num_deleted":"0","num_feature":"25","num_nodes":"61","size_leaf_vector":"1"}},{"base_weights":[3.836963E-3,-7.3690933E-1,8.7564135E-1,5.1968133E-1,-1.1371626E0,1.175905E0,4.848809E-1,9.213782E-1,-4.9387682E-2,-7.386875E-1,-1.8385503E0,-3.5883762E-2,1.2289749E0,-1.4709735E0,5.7392997E-1,9.632464E-1,-1.3632832E-1,3.7083137E-1,-5.636322E-1,-5.295093E-1,-1.5288147E0,-2.05909E0,-1.2638568E0,3.4068415E-1,-1.3385352E0,1.2706876E0,7.498848E-1,1.8019098E-3,-1.5985903E0,2.725959E-1,7.7254486E-1,8.788473E-3,1.3350143E-2,2.683516E-3,-1.3175833E-2,7.9393946E-4,8.007797E-3,3.7799547E-3,-1.0228402E-2,-8.148928E-3,-2.816513E-4,-1.020807E-2,-1.9433377E-2,-2.1034857E-2,-1.4854492E-2,-9.646315E-3,-1.8569844E-2,5.0987564E-3,-6.4931405E-3,4.60201E-3,-1.8446533E-2,1.4594975E-2,1.1940516E-2,3.502669E-3,1.28494315E-2,-1.883285E-2,-4.6571097E-3,3.99585E-3,-3.8595696E-3,8.507763E-3,7.425465E-4],"categories":[],"categories_nodes":[],"categories_segments":[],"categories_sizes":[],"default_left":[0,0,0,0,0,0,0,0,0,0,0,0,0,0,0,0,0,0,0,0,0,0,0,0,0,0,0,0,0,0,0,0,0,0,0,0,0,0,0,0,0,0,0,0,0,0,0,0,0,0,0,0,0,0,0,0,0,0,0,0,0],"id":6,"left_children":[1,3,5,7,9,11,13,15,17,19,21,23,25,27,29,31,33,35,37,39,41,43,45,47,49,51,53,-1,55,57,59,-1,-1,-1,-1,-1,-1,-1,-1,-1,-1,-1,-1,-1,-1,-1,-1,-1,-1,-1,-1,-1,-1,-1,-1,-1,-1,-1,-1,-1,-1],"loss_changes":[1.577995E3,6.650258E2,1.3112994E2,7.315493E1,2.7875354E2,4.08183E1,8.6087585E1,8.436081E0,2.9012354E1,1.05101105E2,4.333362E1,1.3981969E1,1.1186584E1,4.838257E0,2.7849258E1,4.4907684E0,4.185782E0,9.203077E0,2.6476114E1,7.268787E1,2.6151062E1,3.5054932E0,1.6507187E1,4.047447E0,6.6628733E0,6.3221436E0,1.0474541E1,0E0,5.620533E0,1.5859896E1,1.5344101E1,0E0,0E0,0E0,0E0,0E0,0E0,0E0,0E0,0E0,0E0,0E0,0E0,0E0,0E0,0E0,0E0,0E0,0E0,0E0,0E0,0E0,0E0,0E0,0E0,0E0,0E0,0E0,0E0,0E0,0E0],"parents":[2147483647,0,0,1,1,2,2,3,3,4,4,5,5,6,6,7,7,8,8,9,9,10,10,11,11,12,12,13,13,14,14,15,15,16,16,17,17,18,18,19,19,20,20,21,21,22,22,23,23,24,24,25,25,26,26,28,28,29,29,30,30],"right_children":[2,4,6,8,10,12,14,16,18,20,22,24,26,28,30,32,34,36,38,40,42,44,46,48,50,52,54,-1,56,58,60,-1,-1,-1,-1,-1,-1,-1,-1,-1,-1,-1,-1,-1,-1,-1,-1,-1,-1,-1,-1,-1,-1,-1,-1,-1,-1,-1,-1,-1,-1],"split_conditions":[1E0,-1.0823982E0,-6.749042E-1,1E0,1E0,1E0,1E0,-2.7899173E-1,-1.2453958E0,1E0,8.918726E-1,-8.3790183E-1,1E0,-6.341548E-1,1E0,1E0,1E0,1E0,1E0,1E0,1E0,1E0,1.6070621E0,3.2553962E-1,3.4899544E-2,-1.2453958E0,9.63287E-1,1.8019098E-3,4.6670765E-1,7.9207414E-1,9.5507175E-1,8.788473E-3,1.3350143E-2,2.683516E-3,-1.3175833E-2,7.9393946E-4,8.007797E-3,3.7799547E-3,-1.0228402E-2,-8.148928E-3,-2.816513E-4,-1.020807E-2,-1.9433377E-2,-2.1034857E-2,-1.4854492E-2,-9.646315E-3,-1.8569844E-2,5.0987564E-3,-6.4931405E-3,4.60201E-3,-1.8446533E-2,1.4594975E-2,1.1940516E-2,3.502669E-3,1.28494315E-2,-1.883285E-2,-4.6571097E-3,3.99585E-3,-3.8595696E-3,8.507763E-3,7.425465E-4],"split_indices":[13,3,3,8,18,15,15,12,3,16,12,3,5,3,20,0,6,11,10,20,17,20,3,12,12,3,12,0,12,3,3,0,0,0,0,0,0,0,0,0,0,0,0,0,0,0,0,0,0,0,0,0,0,0,0,0,0,0,0,0,0],"split_type":[0,0,0,0,0,0,0,0,0,0,0,0,0,0,0,0,0,0,0,0,0,0,0,0,0,0,0,0,0,0,0,0,0,0,0,0,0,0,0,0,0,0,0,0,0,0,0,0,0,0,0,0,0,0,0,0,0,0,0,0,0],"sum_hessian":[2.4415276E3,1.3200636E3,1.1214641E3,3.188232E2,1.00124036E3,6.3302954E2,4.8843454E2,1.8653322E2,1.3228998E2,6.398051E2,3.6143524E2,2.6573778E1,6.0645575E2,2.059399E1,4.6784058E2,1.7951656E2,7.0166616E0,7.295395E1,5.933603E1,5.0719934E2,1.3260579E2,2.593329E2,1.0210236E2,2.1187428E1,5.3863506E0,5.56363E2,5.009282E1,1.4479377E0,1.9146053E1,1.868017E2,2.8103885E2,1.4904437E2,3.0472189E1,5.8018584E0,1.214803E0,4.4186863E1,2.8767086E1,1.9508924E1,3.9827106E1,3.2281546E2,1.8438387E2,6.113995E1,7.1465836E1,2.3822873E2,2.1104156E1,6.96109E1,3.249146E1,1.8509169E1,2.6782584E0,1.2026994E0,4.1836514E0,1.5541603E2,4.0094693E2,2.9622992E1,2.0469826E1,1.4771547E1,4.374505E0,1.569334E2,2.9868309E1,2.5252895E2,2.8509922E1],"tree_param":{"num_deleted":"0","num_feature":"25","num_nodes":"61","size_leaf_vector":"1"}},{"base_weights":[3.781379E-3,-7.2900075E-1,8.6858565E-1,5.151347E-1,-1.1242529E0,1.1672401E0,4.8051974E-1,9.140129E-1,-4.887501E-2,-7.305787E-1,-1.8164529E0,-3.6082394E-2,1.2200677E0,-1.4548297E0,5.6888646E-1,9.556753E-1,-1.362746E-1,3.6751083E-1,-5.576707E-1,-5.238034E-1,-1.5106951E0,-2.0339308E0,-1.2493894E0,3.3745775E-1,-1.3255976E0,1.2615823E0,7.4385303E-1,1.7916103E-3,-1.5808934E0,2.7001897E-1,7.6608396E-1,8.71719E-3,1.325901E-2,-8.572972E-3,5.099747E-3,-6.5296767E-3,4.8394776E-3,-1.0449154E-2,3.1273067E-3,-8.0576325E-3,-2.7883428E-4,-1.0092852E-2,-1.9194325E-2,-2.0776689E-2,-1.4685002E-2,-9.537594E-3,-1.8349918E-2,5.05523E-3,-6.4409655E-3,4.579143E-3,-1.826471E-2,1.3394172E-2,1.08296415E-2,3.4710586E-3,1.27617465E-2,-1.8617215E-2,-4.6162857E-3,3.9592064E-3,-3.8198098E-3,8.437976E-3,7.354693E-4],"categories":[],"categories_nodes":[],"categories_segments":[],"categories_sizes":[],"default_left":[0,0,0,0,0,0,0,0,0,0,0,0,0,0,0,0,0,0,0,0,0,0,0,0,0,0,0,0,0,0,0,0,0,0,0,0,0,0,0,0,0,0,0,0,0,0,0,0,0,0,0,0,0,0,0,0,0,0,0,0,0],"id":7,"left_children":[1,3,5,7,9,11,13,15,17,19,21,23,25,27,29,31,33,35,37,39,41,43,45,47,49,51,53,-1,55,57,59,-1,-1,-1,-1,-1,-1,-1,-1,-1,-1,-1,-1,-1,-1,-1,-1,-1,-1,-1,-1,-1,-1,-1,-1,-1,-1,-1,-1,-1,-1],"loss_changes":[1.5478071E3,6.507397E2,1.2927917E2,7.191198E1,2.7218018E2,4.024353E1,8.4442505E1,8.320251E0,2.844156E1,1.0268588E2,4.2250854E1,1.3725558E1,1.1038513E1,4.7387238E0,2.739209E1,4.4438324E0,4.1725526E0,9.096947E0,2.5934765E1,7.109633E1,2.5499634E1,3.4022217E0,1.6128983E1,3.9831462E0,6.548725E0,6.2765503E0,1.03311615E1,0E0,5.4843636E0,1.5559094E1,1.5092911E1,0E0,0E0,0E0,0E0,0E0,0E0,0E0,0E0,0E0,0E0,0E0,0E0,0E0,0E0,0E0,0E0,0E0,0E0,0E0,0E0,0E0,0E0,0E0,0E0,0E0,0E0,0E0,0E0,0E0,0E0],"parents":[2147483647,0,0,1,1,2,2,3,3,4,4,5,5,6,6,7,7,8,8,9,9,10,10,11,11,12,12,13,13,14,14,15,15,16,16,17,17,18,18,19,19,20,20,21,21,22,22,23,23,24,24,25,25,26,26,28,28,29,29,30,30],"right_children":[2,4,6,8,10,12,14,16,18,20,22,24,26,28,30,32,34,36,38,40,42,44,46,48,50,52,54,-1,56,58,60,-1,-1,-1,-1,-1,-1,-1,-1,-1,-1,-1,-1,-1,-1,-1,-1,-1,-1,-1,-1,-1,-1,-1,-1,-1,-1,-1,-1,-1,-1],"split_conditions":[1E0,-1.0823982E0,-6.749042E-1,1E0,1E0,1E0,1E0,-2.7899173E-1,-1.2453958E0,1E0,8.918726E-1,-8.3790183E-1,1E0,-6.341548E-1,1E0,1E0,1E0,-1.5129664E0,-1.3103487E0,1E0,1E0,1E0,1.6070621E0,3.2553962E-1,3.4899544E-2,-1.0008994E0,9.63287E-1,1.7916103E-3,4.6670765E-1,7.9207414E-1,9.5507175E-1,8.71719E-3,1.325901E-2,-8.572972E-3,5.099747E-3,-6.5296767E-3,4.8394776E-3,-1.0449154E-2,3.1273067E-3,-8.0576325E-3,-2.7883428E-4,-1.0092852E-2,-1.9194325E-2,-2.0776689E-2,-1.4685002E-2,-9.537594E-3,-1.8349918E-2,5.05523E-3,-6.4409655E-3,4.579143E-3,-1.826471E-2,1.3394172E-2,1.08296415E-2,3.4710586E-3,1.27617465E-2,-1.8617215E-2,-4.6162857E-3,3.9592064E-3,-3.8198098E-3,8.437976E-3,7.354693E-4],"split_indices":[13,3,3,8,18,15,15,12,3,16,12,3,5,3,20,0,4,12,12,20,17,20,3,12,12,3,12,0,12,3,3,0,0,0,0,0,0,0,0,0,0,0,0,0,0,0,0,0,0,0,0,0,0,0,0,0,0,0,0,0,0],"split_type":[0,0,0,0,0,0,0,0,0,0,0,0,0,0,0,0,0,0,0,0,0,0,0,0,0,0,0,0,0,0,0,0,0,0,0,0,0,0,0,0,0,0,0,0,0,0,0,0,0,0,0,0,0,0,0,0,0,0,0,0,0],"sum_hessian":[2.4404424E3,1.3211434E3,1.119299E3,3.184512E2,1.0026922E3,6.313815E2,4.879174E2,1.8616867E2,1.3228252E2,6.404851E2,3.622071E2,2.656616E1,6.0481537E2,2.0629961E1,4.6728745E2,1.7915222E2,7.01646E0,7.290035E1,5.9382164E1,5.0761075E2,1.3287437E2,2.599322E2,1.0227492E2,2.1171589E1,5.3945704E0,5.548008E2,5.0014576E1,1.4474506E0,1.918251E1,1.8669958E2,2.8058786E2,1.4877008E2,3.0382141E1,3.162015E0,3.8544447E0,6.994156E0,6.59062E1,3.7941994E1,2.1440168E1,3.232176E2,1.8439316E2,6.1230488E1,7.164388E1,2.3878659E2,2.114559E1,6.9711235E1,3.256368E1,1.8490547E1,2.6810412E0,1.2016171E0,4.1929536E0,3.8188934E2,1.7291142E2,2.9603046E1,2.041153E1,1.48046255E1,4.3778853E0,1.5681186E2,2.9887726E1,2.5208182E2,2.850604E1],"tree_param":{"num_deleted":"0","num_feature":"25","num_nodes":"61","size_leaf_vector":"1"}},{"base_weights":[3.7238754E-3,-7.212412E-1,8.6161643E-1,5.1062524E-1,-1.1116072E0,1.1586971E0,4.7620577E-1,9.0676445E-1,-4.8453897E-2,-7.2259766E-1,-1.7949752E0,-3.627446E-2,1.2112868E0,-1.4390608E0,5.638936E-1,9.48191E-1,-1.353309E-1,3.6408043E-1,-5.5181295E-1,-5.1817447E-1,-1.4930062E0,-2.0095494E0,-1.2352141E0,4.057049E-1,-1.1067758E0,1.2526095E0,7.378869E-1,1.781369E-3,-1.5636235E0,2.6746693E-1,7.596904E-1,1.00891935E-2,4.939692E-3,2.6717547E-3,-1.3086006E-2,7.510594E-4,7.911695E-3,3.7190067E-3,-1.0004538E-2,-7.967731E-3,-2.7604852E-4,-9.979591E-3,-1.8962208E-2,-2.0526689E-2,-1.4519225E-2,-9.430671E-3,-1.8136002E-2,6.018271E-3,-6.3893264E-3,2.1766603E-3,-1.8504797E-2,1.4409224E-2,1.1762671E-2,3.4397324E-3,1.2675379E-2,-1.8407445E-2,-4.575878E-3,3.9228997E-3,-3.780509E-3,8.36893E-3,7.2846096E-4],"categories":[],"categories_nodes":[],"categories_segments":[],"categories_sizes":[],"default_left":[0,0,0,0,0,0,0,0,0,0,0,0,0,0,0,0,0,0,0,0,0,0,0,0,0,0,0,0,0,0,0,0,0,0,0,0,0,0,0,0,0,0,0,0,0,0,0,0,0,0,0,0,0,0,0,0,0,0,0,0,0],"id":8,"left_children":[1,3,5,7,9,11,13,15,17,19,21,23,25,27,29,31,33,35,37,39,41,43,45,47,49,51,53,-1,55,57,59,-1,-1,-1,-1,-1,-1,-1,-1,-1,-1,-1,-1,-1,-1,-1,-1,-1,-1,-1,-1,-1,-1,-1,-1,-1,-1,-1,-1,-1,-1],"loss_changes":[1.5182916E3,6.368248E2,1.2746826E2,7.071001E1,2.6587976E2,3.9679443E1,8.283491E1,8.192581E0,2.7875254E1,1.0035535E2,4.122693E1,1.3487634E1,1.0894043E1,4.6423874E0,2.6943542E1,4.460785E0,4.135687E0,9.05456E0,2.541339E1,6.9545105E1,2.4880188E1,3.3066406E0,1.5767838E1,4.530507E0,8.599082E0,6.272583E0,1.0190989E1,0E0,5.3540306E0,1.5264032E1,1.484642E1,0E0,0E0,0E0,0E0,0E0,0E0,0E0,0E0,0E0,0E0,0E0,0E0,0E0,0E0,0E0,0E0,0E0,0E0,0E0,0E0,0E0,0E0,0E0,0E0,0E0,0E0,0E0,0E0,0E0,0E0],"parents":[2147483647,0,0,1,1,2,2,3,3,4,4,5,5,6,6,7,7,8,8,9,9,10,10,11,11,12,12,13,13,14,14,15,15,16,16,17,17,18,18,19,19,20,20,21,21,22,22,23,23,24,24,25,25,26,26,28,28,29,29,30,30],"right_children":[2,4,6,8,10,12,14,16,18,20,22,24,26,28,30,32,34,36,38,40,42,44,46,48,50,52,54,-1,56,58,60,-1,-1,-1,-1,-1,-1,-1,-1,-1,-1,-1,-1,-1,-1,-1,-1,-1,-1,-1,-1,-1,-1,-1,-1,-1,-1,-1,-1,-1,-1],"split_conditions":[1E0,-1.0823982E0,-6.749042E-1,1E0,1E0,1E0,1E0,-2.7899173E-1,-1.2453958E0,1E0,8.918726E-1,-9.194006E-1,1E0,-6.341548E-1,1E0,1E0,1E0,1E0,1E0,1E0,1E0,1E0,1.6070621E0,3.2553962E-1,5.648995E-2,-1.2453958E0,9.63287E-1,1.781369E-3,4.6670765E-1,7.9207414E-1,9.5507175E-1,1.00891935E-2,4.939692E-3,2.6717547E-3,-1.3086006E-2,7.510594E-4,7.911695E-3,3.7190067E-3,-1.0004538E-2,-7.967731E-3,-2.7604852E-4,-9.979591E-3,-1.8962208E-2,-2.0526689E-2,-1.4519225E-2,-9.430671E-3,-1.8136002E-2,6.018271E-3,-6.3893264E-3,2.1766603E-3,-1.8504797E-2,1.4409224E-2,1.1762671E-2,3.4397324E-3,1.2675379E-2,-1.8407445E-2,-4.575878E-3,3.9228997E-3,-3.780509E-3,8.36893E-3,7.2846096E-4],"split_indices":[13,3,3,8,18,15,15,12,3,16,12,3,5,3,20,5,6,11,10,20,17,20,3,12,12,3,12,0,12,3,3,0,0,0,0,0,0,0,0,0,0,0,0,0,0,0,0,0,0,0,0,0,0,0,0,0,0,0,0,0,0],"split_type":[0,0,0,0,0,0,0,0,0,0,0,0,0,0,0,0,0,0,0,0,0,0,0,0,0,0,0,0,0,0,0,0,0,0,0,0,0,0,0,0,0,0,0,0,0,0,0,0,0,0,0,0,0,0,0,0,0,0,0,0,0],"sum_hessian":[2.4392112E3,1.3221136E3,1.1170974E3,3.1807278E2,1.0040409E3,6.2970465E2,4.8739282E2,1.8580063E2,1.3227216E2,6.4113184E2,3.629091E2,2.6557646E1,6.03147E2,2.0663002E1,4.6672983E2,1.7878354E2,7.017093E0,7.284654E1,5.9425613E1,5.080077E2,1.3312413E2,2.6047186E2,1.0243721E2,1.9236471E1,7.3211746E0,5.532117E2,4.993534E1,1.4469641E0,1.9216038E1,1.8659709E2,2.8013275E2,1.5662233E2,2.2161215E1,5.7997055E0,1.2173876E0,4.4149933E1,2.8696611E1,1.9482939E1,3.9942677E1,3.2360535E2,1.8440236E2,6.1317062E1,7.180707E1,2.392875E2,2.1184372E1,6.9807465E1,3.262975E1,1.6552721E1,2.6837502E0,2.8870425E0,4.434132E0,1.5442308E2,3.9878857E2,2.9583124E1,2.0352219E1,1.4834845E1,4.381193E0,1.5669035E2,2.9906744E1,2.5163055E2,2.850219E1],"tree_param":{"num_deleted":"0","num_feature":"25","num_nodes":"61","size_leaf_vector":"1"}},{"base_weights":[3.6664347E-3,-7.13625E-1,8.5473317E-1,5.061605E-1,-1.0992159E0,1.1502752E0,4.7193798E-1,8.9952826E-1,-4.795231E-2,-7.147405E-1,-1.7740902E0,-3.6524646E-2,1.2026343E0,-1.423653E0,5.5895054E-1,9.4075376E-1,-1.3527945E-1,3.6082304E-1,-5.460224E-1,-5.126203E-1,-1.4757317E0,-1.9859102E0,-1.2213209E0,4.019809E-1,-1.0966015E0,1.2437714E0,7.319849E-1,1.7711888E-3,-1.5467644E0,2.6493984E-1,7.5336266E-1,8.570429E-3,1.3105954E-2,-8.501162E-3,5.065669E-3,-6.497266E-3,4.7642845E-3,-1.0221147E-2,3.0770972E-3,-7.879178E-3,-2.7328913E-4,-9.868233E-3,-1.8736716E-2,-2.0284468E-2,-1.4357033E-2,-9.325489E-3,-1.7927842E-2,5.9684054E-3,-6.3382196E-3,2.1611706E-3,-1.8322492E-2,1.4315206E-2,1.1677138E-2,3.4086895E-3,1.2590287E-2,-1.8203296E-2,-4.53588E-3,3.8869302E-3,-3.7416625E-3,8.300602E-3,7.215169E-4],"categories":[],"categories_nodes":[],"categories_segments":[],"categories_sizes":[],"default_left":[0,0,0,0,0,0,0,0,0,0,0,0,0,0,0,0,0,0,0,0,0,0,0,0,0,0,0,0,0,0,0,0,0,0,0,0,0,0,0,0,0,0,0,0,0,0,0,0,0,0,0,0,0,0,0,0,0,0,0,0,0],"id":9,"left_children":[1,3,5,7,9,11,13,15,17,19,21,23,25,27,29,31,33,35,37,39,41,43,45,47,49,51,53,-1,55,57,59,-1,-1,-1,-1,-1,-1,-1,-1,-1,-1,-1,-1,-1,-1,-1,-1,-1,-1,-1,-1,-1,-1,-1,-1,-1,-1,-1,-1,-1,-1],"loss_changes":[1.48943E3,6.232728E2,1.256969E2,6.950735E1,2.5983655E2,3.9129883E1,8.126366E1,8.080338E0,2.7328455E1,9.810541E1,4.0258057E1,1.3246559E1,1.0753784E1,4.5491066E0,2.6503387E1,4.4312744E0,4.10886E0,8.930374E0,2.4891527E1,6.803281E1,2.4290741E1,3.2183838E0,1.5422745E1,4.4592056E0,8.439477E0,6.2193604E0,1.0053875E1,0E0,5.2292023E0,1.4974622E1,1.4604538E1,0E0,0E0,0E0,0E0,0E0,0E0,0E0,0E0,0E0,0E0,0E0,0E0,0E0,0E0,0E0,0E0,0E0,0E0,0E0,0E0,0E0,0E0,0E0,0E0,0E0,0E0,0E0,0E0,0E0,0E0],"parents":[2147483647,0,0,1,1,2,2,3,3,4,4,5,5,6,6,7,7,8,8,9,9,10,10,11,11,12,12,13,13,14,14,15,15,16,16,17,17,18,18,19,19,20,20,21,21,22,22,23,23,24,24,25,25,26,26,28,28,29,29,30,30],"right_children":[2,4,6,8,10,12,14,16,18,20,22,24,26,28,30,32,34,36,38,40,42,44,46,48,50,52,54,-1,56,58,60,-1,-1,-1,-1,-1,-1,-1,-1,-1,-1,-1,-1,-1,-1,-1,-1,-1,-1,-1,-1,-1,-1,-1,-1,-1,-1,-1,-1,-1,-1],"split_conditions":[1E0,-1.0823982E0,-6.749042E-1,1E0,1E0,1E0,1E0,-2.7899173E-1,-1.2453958E0,1E0,8.918726E-1,-9.194006E-1,1E0,-6.341548E-1,1E0,1E0,1E0,-1.5129664E0,-1.3103487E0,1E0,1E0,1E0,1.6070621E0,3.2553962E-1,5.648995E-2,-1.2453958E0,9.63287E-1,1.7711888E-3,4.6670765E-1,7.9207414E-1,9.5507175E-1,8.570429E-3,1.3105954E-2,-8.501162E-3,5.065669E-3,-6.497266E-3,4.7642845E-3,-1.0221147E-2,3.0770972E-3,-7.879178E-3,-2.7328913E-4,-9.868233E-3,-1.8736716E-2,-2.0284468E-2,-1.4357033E-2,-9.325489E-3,-1.7927842E-2,5.9684054E-3,-6.3382196E-3,2.1611706E-3,-1.8322492E-2,1.4315206E-2,1.1677138E-2,3.4086895E-3,1.2590287E-2,-1.8203296E-2,-4.53588E-3,3.8869302E-3,-3.7416625E-3,8.300602E-3,7.215169E-4],"split_indices":[13,3,3,8,18,15,15,12,3,16,12,3,5,3,20,0,4,12,12,20,17,20,3,12,12,3,12,0,12,3,3,0,0,0,0,0,0,0,0,0,0,0,0,0,0,0,0,0,0,0,0,0,0,0,0,0,0,0,0,0,0],"split_type":[0,0,0,0,0,0,0,0,0,0,0,0,0,0,0,0,0,0,0,0,0,0,0,0,0,0,0,0,0,0,0,0,0,0,0,0,0,0,0,0,0,0,0,0,0,0,0,0,0,0,0,0,0,0,0,0,0,0,0,0,0],"sum_hessian":[2.4378381E3,1.3229761E3,1.1148619E3,3.176868E2,1.0052893E3,6.2800085E2,4.8686115E2,1.8542746E2,1.3225934E2,6.4174615E2,3.6354312E2,2.654815E1,6.014527E2,2.0693188E1,4.6616797E2,1.7841069E2,7.016776E0,7.279263E1,5.9466705E1,5.0839056E2,1.3335558E2,2.609536E2,1.0258951E2,1.9218946E1,7.329203E0,5.5159753E2,4.9855152E1,1.4464785E0,1.924671E1,1.8649425E2,2.796737E2,1.48187E2,3.0223684E1,3.1661203E0,3.8506556E0,6.9982395E0,6.5794395E1,3.8050327E1,2.1416378E1,3.2397913E2,1.8441145E2,6.1399765E1,7.19558E1,2.3973306E2,2.122057E1,6.989967E1,3.2689835E1,1.653256E1,2.686386E0,2.8858323E0,4.443371E0,1.5389217E2,3.9770538E2,2.9563225E1,2.0291927E1,1.486228E1,4.38443E0,1.5656888E2,2.992537E1,2.5117534E2,2.8498367E1],"tree_param":{"num_deleted":"0","num_feature":"25","num_nodes":"61","size_leaf_vector":"1"}},{"base_weights":[3.6107823E-3,-7.0614326E-1,8.4793377E-1,5.017522E-1,-1.0870702E0,1.1419711E0,4.6771562E-1,8.924412E-1,-4.7541495E-2,-7.070044E-1,-1.753772E0,-3.6768027E-2,1.1941037E0,-1.4085927E0,5.5405647E-1,9.3343645E-1,-1.3434373E-1,3.5745576E-1,-5.4033124E-1,-5.0713974E-1,-1.4588554E0,-1.9629785E0,-1.2076999E0,3.9829466E-1,-1.0866245E0,1.2350614E0,7.26146E-1,1.7610671E-3,-1.5303003E0,2.6243702E-1,7.4709964E-1,9.93944E-3,4.817713E-3,2.6600854E-3,-1.2997615E-2,7.0920895E-4,7.817247E-3,3.6590477E-3,-9.788032E-3,-7.7919494E-3,-2.705577E-4,-9.758723E-3,-1.851756E-2,-2.0049667E-2,-1.4198291E-2,-9.222006E-3,-1.772519E-2,5.9189973E-3,-6.2876362E-3,2.1457905E-3,-1.8144695E-2,1.3126905E-2,1.0572277E-2,1.2841155E-3,1.057727E-2,-1.8004533E-2,-4.496288E-3,3.8512894E-3,-3.7032592E-3,8.232985E-3,7.146393E-4],"categories":[],"categories_nodes":[],"categories_segments":[],"categories_sizes":[],"default_left":[0,0,0,0,0,0,0,0,0,0,0,0,0,0,0,0,0,0,0,0,0,0,0,0,0,0,0,0,0,0,0,0,0,0,0,0,0,0,0,0,0,0,0,0,0,0,0,0,0,0,0,0,0,0,0,0,0,0,0,0,0],"id":10,"left_children":[1,3,5,7,9,11,13,15,17,19,21,23,25,27,29,31,33,35,37,39,41,43,45,47,49,51,53,-1,55,57,59,-1,-1,-1,-1,-1,-1,-1,-1,-1,-1,-1,-1,-1,-1,-1,-1,-1,-1,-1,-1,-1,-1,-1,-1,-1,-1,-1,-1,-1,-1],"loss_changes":[1.4611963E3,6.100825E2,1.23963806E2,6.8349525E1,2.5403589E2,3.859015E1,7.972771E1,7.9569244E0,2.6785736E1,9.593216E1,3.934021E1,1.3010727E1,1.0617065E1,4.458744E0,2.6071365E1,4.4140015E0,4.0864186E0,8.908794E0,2.4400454E1,6.655829E1,2.372937E1,3.137085E0,1.5092743E1,4.389059E0,8.284559E0,6.2182007E0,9.92746E0,0E0,5.1095657E0,1.4690711E1,1.4367172E1,0E0,0E0,0E0,0E0,0E0,0E0,0E0,0E0,0E0,0E0,0E0,0E0,0E0,0E0,0E0,0E0,0E0,0E0,0E0,0E0,0E0,0E0,0E0,0E0,0E0,0E0,0E0,0E0,0E0,0E0],"parents":[2147483647,0,0,1,1,2,2,3,3,4,4,5,5,6,6,7,7,8,8,9,9,10,10,11,11,12,12,13,13,14,14,15,15,16,16,17,17,18,18,19,19,20,20,21,21,22,22,23,23,24,24,25,25,26,26,28,28,29,29,30,30],"right_children":[2,4,6,8,10,12,14,16,18,20,22,24,26,28,30,32,34,36,38,40,42,44,46,48,50,52,54,-1,56,58,60,-1,-1,-1,-1,-1,-1,-1,-1,-1,-1,-1,-1,-1,-1,-1,-1,-1,-1,-1,-1,-1,-1,-1,-1,-1,-1,-1,-1,-1,-1],"split_conditions":[1E0,-1.0823982E0,-6.749042E-1,1E0,1E0,1E0,1E0,-2.7899173E-1,-1.2453958E0,1E0,8.918726E-1,-9.194006E-1,1E0,-6.341548E-1,1E0,1E0,1E0,1E0,1E0,1E0,1E0,1E0,1.6070621E0,3.2553962E-1,5.648995E-2,-1.0008994E0,6.195013E-1,1.7610671E-3,4.6670765E-1,7.9207414E-1,9.5507175E-1,9.93944E-3,4.817713E-3,2.6600854E-3,-1.2997615E-2,7.0920895E-4,7.817247E-3,3.6590477E-3,-9.788032E-3,-7.7919494E-3,-2.705577E-4,-9.758723E-3,-1.851756E-2,-2.0049667E-2,-1.4198291E-2,-9.222006E-3,-1.772519E-2,5.9189973E-3,-6.2876362E-3,2.1457905E-3,-1.8144695E-2,1.3126905E-2,1.0572277E-2,1.2841155E-3,1.057727E-2,-1.8004533E-2,-4.496288E-3,3.8512894E-3,-3.7032592E-3,8.232985E-3,7.146393E-4],"split_indices":[13,3,3,8,18,15,15,12,3,16,12,3,5,3,20,5,6,11,10,20,17,20,3,12,12,3,12,0,12,3,3,0,0,0,0,0,0,0,0,0,0,0,0,0,0,0,0,0,0,0,0,0,0,0,0,0,0,0,0,0,0],"split_type":[0,0,0,0,0,0,0,0,0,0,0,0,0,0,0,0,0,0,0,0,0,0,0,0,0,0,0,0,0,0,0,0,0,0,0,0,0,0,0,0,0,0,0,0,0,0,0,0,0,0,0,0,0,0,0,0,0,0,0,0,0],"sum_hessian":[2.4363286E3,1.3237351E3,1.1125934E3,3.1729514E2,1.00644E3,6.262707E2,4.8632266E2,1.8505136E2,1.3224377E2,6.4232886E2,3.6411115E2,2.6537682E1,5.9973303E2,2.0720592E1,4.6560208E2,1.780341E2,7.017253E0,7.273853E1,5.950524E1,5.087597E2,1.3356918E2,2.613791E2,1.0273206E2,1.920126E1,7.336422E0,5.49959E2,4.9774055E1,1.4459935E0,1.92746E1,1.8639108E2,2.7921097E2,1.5594257E2,2.2091536E1,5.7974286E0,1.2198241E0,4.411328E1,2.862525E1,1.945697E1,4.0048267E1,3.2433926E2,1.8442046E2,6.1478703E1,7.209048E1,2.4012483E2,2.125425E1,6.9987976E1,3.274409E1,1.651231E1,2.6889505E0,2.8846247E0,4.451797E0,3.7839716E2,1.7156181E2,1.8254429E1,3.1519625E1,1.4887003E1,4.3875957E0,1.5644748E2,2.994361E1,2.507164E2,2.8494576E1],"tree_param":{"num_deleted":"0","num_feature":"25","num_nodes":"61","size_leaf_vector":"1"}},{"base_weights":[3.5523525E-3,-6.9879645E-1,8.4121025E-1,4.973865E-1,-1.0751623E0,1.1465195E0,4.7916022E-1,8.853629E-1,-4.705104E-2,-6.993864E-1,-1.7339967E0,2.2433136E-2,1.1967592E0,-1.4196831E0,5.6557876E-1,9.2616284E-1,-1.3429442E-1,3.542596E-1,-5.34704E-1,-5.017315E-1,-1.4423622E0,-1.940723E0,-1.1943424E0,3.946456E-1,-9.6932125E-1,1.4163301E0,1.1098682E0,-1.6121997E0,-6.016601E-1,2.939203E-1,7.471721E-1,8.426796E-3,1.295722E-2,-8.430334E-3,5.0319284E-3,-6.46464E-3,4.690404E-3,-1.0000651E-2,3.0276894E-3,-7.7060144E-3,-2.6785507E-4,-9.651014E-3,-1.830446E-2,-1.9821947E-2,-1.4042885E-2,-9.120175E-3,-1.752782E-2,5.8700405E-3,-6.237563E-3,2.13052E-3,-1.7377116E-2,1.4437833E-2,2.727974E-3,8.723027E-3,1.2597091E-2,-2.0760807E-4,-1.7810937E-2,8.758543E-3,-1.7196702E-2,4.1427845E-3,-3.6652987E-3,8.199758E-3,7.0782617E-4],"categories":[],"categories_nodes":[],"categories_segments":[],"categories_sizes":[],"default_left":[0,0,0,0,0,0,0,0,0,0,0,0,0,0,0,0,0,0,0,0,0,0,0,0,0,0,0,0,0,0,0,0,0,0,0,0,0,0,0,0,0,0,0,0,0,0,0,0,0,0,0,0,0,0,0,0,0,0,0,0,0,0,0],"id":11,"left_children":[1,3,5,7,9,11,13,15,17,19,21,23,25,27,29,31,33,35,37,39,41,43,45,47,49,51,53,55,57,59,61,-1,-1,-1,-1,-1,-1,-1,-1,-1,-1,-1,-1,-1,-1,-1,-1,-1,-1,-1,-1,-1,-1,-1,-1,-1,-1,-1,-1,-1,-1,-1,-1],"loss_changes":[1.4335702E3,5.9722955E2,1.2228998E2,6.7190575E1,2.4846472E2,3.3980103E1,8.45116E1,7.8486176E0,2.6261774E1,9.383203E1,3.847046E1,1.0268573E1,9.424805E0,2.5718765E0,2.3885254E1,4.4199524E0,4.0463057E0,8.766886E0,2.3897476E1,6.512042E1,2.3194305E1,3.0617676E0,1.4776962E1,4.320043E0,7.2728257E0,4.6228943E0,1.3766052E1,4.6964607E0,1.1219257E1,1.5844597E1,1.4331696E1,0E0,0E0,0E0,0E0,0E0,0E0,0E0,0E0,0E0,0E0,0E0,0E0,0E0,0E0,0E0,0E0,0E0,0E0,0E0,0E0,0E0,0E0,0E0,0E0,0E0,0E0,0E0,0E0,0E0,0E0,0E0,0E0],"parents":[2147483647,0,0,1,1,2,2,3,3,4,4,5,5,6,6,7,7,8,8,9,9,10,10,11,11,12,12,13,13,14,14,15,15,16,16,17,17,18,18,19,19,20,20,21,21,22,22,23,23,24,24,25,25,26,26,27,27,28,28,29,29,30,30],"right_children":[2,4,6,8,10,12,14,16,18,20,22,24,26,28,30,32,34,36,38,40,42,44,46,48,50,52,54,56,58,60,62,-1,-1,-1,-1,-1,-1,-1,-1,-1,-1,-1,-1,-1,-1,-1,-1,-1,-1,-1,-1,-1,-1,-1,-1,-1,-1,-1,-1,-1,-1,-1,-1],"split_conditions":[1E0,-1.0823982E0,-7.156536E-1,1E0,1E0,1E0,1E0,-2.7899173E-1,-1.2453958E0,1E0,8.918726E-1,-9.194006E-1,-1.2453958E0,4.6670765E-1,1E0,1E0,1E0,-1.5129664E0,-1.3103487E0,1E0,1E0,1E0,1.6070621E0,3.2553962E-1,5.648995E-2,1E0,5.1819247E-1,-6.341548E-1,4.9826285E-1,7.9207414E-1,9.5507175E-1,8.426796E-3,1.295722E-2,-8.430334E-3,5.0319284E-3,-6.46464E-3,4.690404E-3,-1.0000651E-2,3.0276894E-3,-7.7060144E-3,-2.6785507E-4,-9.651014E-3,-1.830446E-2,-1.9821947E-2,-1.4042885E-2,-9.120175E-3,-1.752782E-2,5.8700405E-3,-6.237563E-3,2.13052E-3,-1.7377116E-2,1.4437833E-2,2.727974E-3,8.723027E-3,1.2597091E-2,-2.0760807E-4,-1.7810937E-2,8.758543E-3,-1.7196702E-2,4.1427845E-3,-3.6652987E-3,8.199758E-3,7.0782617E-4],"split_indices":[13,3,3,8,18,15,15,12,3,16,12,3,3,12,20,0,4,12,12,20,17,20,3,12,12,8,12,3,12,3,3,0,0,0,0,0,0,0,0,0,0,0,0,0,0,0,0,0,0,0,0,0,0,0,0,0,0,0,0,0,0,0,0],"split_type":[0,0,0,0,0,0,0,0,0,0,0,0,0,0,0,0,0,0,0,0,0,0,0,0,0,0,0,0,0,0,0,0,0,0,0,0,0,0,0,0,0,0,0,0,0,0,0,0,0,0,0,0,0,0,0,0,0,0,0,0,0,0,0],"sum_hessian":[2.434686E3,1.3243922E3,1.110294E3,3.168964E2,1.00749585E3,6.0117163E2,5.0912228E2,1.846705E2,1.3222588E2,6.4288086E2,3.64615E2,2.5781017E1,5.7539056E2,2.1490536E1,4.8763174E2,1.7765369E2,7.016823E0,7.268434E1,5.9541534E1,5.0911542E2,1.3376544E2,2.6174985E2,1.0286515E2,1.9183418E1,6.5975995E0,1.5880225E2,4.1658835E2,1.6610508E1,4.880028E0,1.9641664E2,2.9121512E2,1.4759276E2,3.006092E1,3.1700385E0,3.846784E0,7.002289E0,6.568205E1,3.8149014E1,2.139252E1,3.2468607E2,1.8442935E2,6.155396E1,7.221148E1,2.4046437E2,2.1285475E1,7.0072464E1,3.2792686E1,1.6491974E1,2.6914449E0,2.8834198E0,3.71418E0,1.548228E2,3.9794512E0,1.637664E2,2.5282195E2,1.7014236E0,1.4909084E1,2.1953466E0,2.6846812E0,1.6645517E2,2.9961472E1,2.627243E2,2.8490812E1],"tree_param":{"num_deleted":"0","num_feature":"25","num_nodes":"63","size_leaf_vector":"1"}},{"base_weights":[3.4949647E-3,-6.9157565E-1,8.345565E-1,4.9307528E-1,-1.0634838E0,1.125724E0,4.5930457E-1,8.7842995E-1,-4.665007E-2,-6.918833E-1,-1.7147411E0,-3.7644986E-2,1.1774313E0,-1.3791298E0,5.442989E-1,9.190049E-1,-1.3336664E-1,5.397567E-2,-1.9751962E-2,-4.9639386E-1,-1.4262375E0,-1.9191128E0,-1.1812398E0,3.910329E-1,-1.0686941E0,1.21834E0,7.110992E-1,1.7684019E-3,-1.4985712E0,2.5724536E-1,7.347378E-1,8.35931E-3,1.2872177E-2,2.6485068E-3,-1.2910624E-2,4.0760753E-3,-3.997096E-3,-7.6213395E-3,-2.6517766E-4,-9.545055E-3,-1.8097151E-2,-1.9600986E-2,-1.3890689E-2,-9.019955E-3,-1.7335515E-2,5.821525E-3,-6.1879987E-3,2.11536E-3,-1.782534E-2,1.2957171E-2,1.04132015E-2,3.2366987E-3,1.23602105E-2,-1.7622298E-2,-4.420403E-3,3.7779917E-3,-3.6277687E-3,8.099543E-3,7.0107495E-4],"categories":[],"categories_nodes":[],"categories_segments":[],"categories_sizes":[],"default_left":[0,0,0,0,0,0,0,0,0,0,0,0,0,0,0,0,0,0,0,0,0,0,0,0,0,0,0,0,0,0,0,0,0,0,0,0,0,0,0,0,0,0,0,0,0,0,0,0,0,0,0,0,0,0,0,0,0,0,0],"id":12,"left_children":[1,3,5,7,9,11,13,15,17,19,21,23,25,27,29,31,33,35,-1,37,39,41,43,45,47,49,51,-1,53,55,57,-1,-1,-1,-1,-1,-1,-1,-1,-1,-1,-1,-1,-1,-1,-1,-1,-1,-1,-1,-1,-1,-1,-1,-1,-1,-1,-1,-1],"loss_changes":[1.4065264E3,5.8471405E2,1.2065094E2,6.6074875E1,2.4311047E2,3.7566467E1,7.672488E1,7.729248E0,2.5956636E1,9.180151E1,3.764514E1,1.257834E1,1.0527283E1,4.310589E0,2.5255188E1,4.37706E0,4.03796E0,2.063046E1,0E0,6.37181E1,2.268399E1,2.9921265E0,1.4474548E1,4.2521415E0,8.005807E0,6.152527E0,9.884245E0,0E0,4.8819847E0,1.4127531E1,1.3904419E1,0E0,0E0,0E0,0E0,0E0,0E0,0E0,0E0,0E0,0E0,0E0,0E0,0E0,0E0,0E0,0E0,0E0,0E0,0E0,0E0,0E0,0E0,0E0,0E0,0E0,0E0,0E0,0E0],"parents":[2147483647,0,0,1,1,2,2,3,3,4,4,5,5,6,6,7,7,8,8,9,9,10,10,11,11,12,12,13,13,14,14,15,15,16,16,17,17,19,19,20,20,21,21,22,22,23,23,24,24,25,25,26,26,28,28,29,29,30,30],"right_children":[2,4,6,8,10,12,14,16,18,20,22,24,26,28,30,32,34,36,-1,38,40,42,44,46,48,50,52,-1,54,56,58,-1,-1,-1,-1,-1,-1,-1,-1,-1,-1,-1,-1,-1,-1,-1,-1,-1,-1,-1,-1,-1,-1,-1,-1,-1,-1,-1,-1],"split_conditions":[1E0,-1.0823982E0,-6.749042E-1,1E0,1E0,1E0,1E0,-2.7899173E-1,1E0,1E0,8.918726E-1,-9.194006E-1,1E0,-6.341548E-1,1E0,1E0,1E0,-1.2453958E0,-1.9751962E-2,1E0,1E0,1E0,1.6070621E0,3.2553962E-1,5.648995E-2,-1.0008994E0,9.63287E-1,1.7684019E-3,4.6670765E-1,7.9207414E-1,9.5507175E-1,8.35931E-3,1.2872177E-2,2.6485068E-3,-1.2910624E-2,4.0760753E-3,-3.997096E-3,-7.6213395E-3,-2.6517766E-4,-9.545055E-3,-1.8097151E-2,-1.9600986E-2,-1.3890689E-2,-9.019955E-3,-1.7335515E-2,5.821525E-3,-6.1879987E-3,2.11536E-3,-1.782534E-2,1.2957171E-2,1.04132015E-2,3.2366987E-3,1.23602105E-2,-1.7622298E-2,-4.420403E-3,3.7779917E-3,-3.6277687E-3,8.099543E-3,7.0107495E-4],"split_indices":[13,3,3,8,18,15,15,12,17,16,12,3,5,3,20,0,6,3,0,20,17,20,3,12,12,3,12,0,12,3,3,0,0,0,0,0,0,0,0,0,0,0,0,0,0,0,0,0,0,0,0,0,0,0,0,0,0,0,0],"split_type":[0,0,0,0,0,0,0,0,0,0,0,0,0,0,0,0,0,0,0,0,0,0,0,0,0,0,0,0,0,0,0,0,0,0,0,0,0,0,0,0,0,0,0,0,0,0,0,0,0,0,0,0,0,0,0,0,0,0,0],"sum_hessian":[2.432927E3,1.3249519E3,1.1079752E3,3.164925E2,1.00845935E3,6.227601E2,4.852151E2,1.842871E2,1.3220538E2,6.434029E2,3.6505646E2,2.6513067E1,5.96247E2,2.0768316E1,4.6444678E2,1.7726996E2,7.0171466E0,1.2657319E2,5.632196E0,5.0945807E2,1.3394482E2,2.6206744E2,1.02989E2,1.9165426E1,7.3476405E0,5.466776E2,4.9569416E1,1.4463307E0,1.9321987E1,1.861735E2,2.782733E2,1.4730594E2,2.9964014E1,5.795032E0,1.2221146E0,7.118698E1,5.5386208E1,3.250199E2,1.8443816E2,6.1625637E1,7.231919E1,2.4075314E2,2.1314314E1,7.015323E1,3.2835766E1,1.6471556E1,2.69387E0,2.8822176E0,4.465423E0,3.7600323E2,1.7067435E2,2.9449911E1,2.0119505E1,1.49285965E1,4.39339E0,1.5619453E2,2.9978964E1,2.4978621E2,2.8487078E1],"tree_param":{"num_deleted":"0","num_feature":"25","num_nodes":"59","size_leaf_vector":"1"}},{"base_weights":[3.4334436E-3,-6.8448716E-1,8.279943E-1,4.8873803E-1,-1.0520271E0,1.1303802E0,4.7062582E-1,8.7153846E-1,-4.633261E-2,-6.844923E-1,-1.6959835E0,2.0946331E-2,1.1802111E0,-1.3908968E0,5.557297E-1,9.1192466E-1,-1.3331965E-1,5.3448927E-2,-1.9540047E-2,-4.911255E-1,-1.4104675E0,-1.8981196E0,-1.1683836E0,3.8745606E-1,-9.526306E-1,1.3994414E0,1.0935878E0,-1.8899811E-2,-1.0033861E0,2.8839365E-1,7.3481864E-1,9.723715E-3,4.620284E-3,2.627016E-3,-1.28264045E-2,4.0391977E-3,-3.9555132E-3,-7.537896E-3,-2.6252723E-4,-9.440798E-3,-1.7895391E-2,-1.938648E-2,-1.37415975E-2,-8.921301E-3,-1.7148066E-2,5.773447E-3,-6.1389348E-3,2.1003063E-3,-1.7059883E-2,1.4269017E-2,2.6156614E-3,8.565735E-3,1.2432623E-2,7.0987066E-4,-1.3362544E-2,4.0672063E-3,-3.5906653E-3,8.066903E-3,6.943905E-4],"categories":[],"categories_nodes":[],"categories_segments":[],"categories_sizes":[],"default_left":[0,0,0,0,0,0,0,0,0,0,0,0,0,0,0,0,0,0,0,0,0,0,0,0,0,0,0,0,0,0,0,0,0,0,0,0,0,0,0,0,0,0,0,0,0,0,0,0,0,0,0,0,0,0,0,0,0,0,0],"id":13,"left_children":[1,3,5,7,9,11,13,15,17,19,21,23,25,27,29,31,33,35,-1,37,39,41,43,45,47,49,51,-1,53,55,57,-1,-1,-1,-1,-1,-1,-1,-1,-1,-1,-1,-1,-1,-1,-1,-1,-1,-1,-1,-1,-1,-1,-1,-1,-1,-1,-1,-1],"loss_changes":[1.3801007E3,5.7247876E2,1.1905255E2,6.498919E1,2.379613E2,3.307422E1,8.139592E1,7.625229E0,2.5458021E1,8.983743E1,3.6861694E1,9.915394E0,9.350159E0,2.461773E0,2.3122147E1,4.3882446E0,3.9857528E0,2.0230778E1,0E0,6.2350166E1,2.2196838E1,2.9279175E0,1.4184784E1,4.185334E0,7.020493E0,4.5854797E0,1.3666382E1,0E0,5.3937197E0,1.5251085E1,1.3870346E1,0E0,0E0,0E0,0E0,0E0,0E0,0E0,0E0,0E0,0E0,0E0,0E0,0E0,0E0,0E0,0E0,0E0,0E0,0E0,0E0,0E0,0E0,0E0,0E0,0E0,0E0,0E0,0E0],"parents":[2147483647,0,0,1,1,2,2,3,3,4,4,5,5,6,6,7,7,8,8,9,9,10,10,11,11,12,12,13,13,14,14,15,15,16,16,17,17,19,19,20,20,21,21,22,22,23,23,24,24,25,25,26,26,28,28,29,29,30,30],"right_children":[2,4,6,8,10,12,14,16,18,20,22,24,26,28,30,32,34,36,-1,38,40,42,44,46,48,50,52,-1,54,56,58,-1,-1,-1,-1,-1,-1,-1,-1,-1,-1,-1,-1,-1,-1,-1,-1,-1,-1,-1,-1,-1,-1,-1,-1,-1,-1,-1,-1],"split_conditions":[1E0,-1.0823982E0,-7.156536E-1,1E0,1E0,1E0,1E0,-2.7899173E-1,1E0,1E0,8.918726E-1,-9.194006E-1,-1.2453958E0,1E0,1E0,1E0,1E0,-1.2453958E0,-1.9540047E-2,1E0,1E0,1E0,1.6070621E0,3.2553962E-1,5.648995E-2,1E0,5.1819247E-1,-1.8899811E-2,1.2956516E-1,7.9207414E-1,9.5507175E-1,9.723715E-3,4.620284E-3,2.627016E-3,-1.28264045E-2,4.0391977E-3,-3.9555132E-3,-7.537896E-3,-2.6252723E-4,-9.440798E-3,-1.7895391E-2,-1.938648E-2,-1.37415975E-2,-8.921301E-3,-1.7148066E-2,5.773447E-3,-6.1389348E-3,2.1003063E-3,-1.7059883E-2,1.4269017E-2,2.6156614E-3,8.565735E-3,1.2432623E-2,7.0987066E-4,-1.3362544E-2,4.0672063E-3,-3.5906653E-3,8.066903E-3,6.943905E-4],"split_indices":[13,3,3,8,18,15,15,12,17,16,12,3,3,10,20,5,6,3,0,20,17,20,3,12,12,8,12,0,12,3,3,0,0,0,0,0,0,0,0,0,0,0,0,0,0,0,0,0,0,0,0,0,0,0,0,0,0,0,0],"split_type":[0,0,0,0,0,0,0,0,0,0,0,0,0,0,0,0,0,0,0,0,0,0,0,0,0,0,0,0,0,0,0,0,0,0,0,0,0,0,0,0,0,0,0,0,0,0,0,0,0,0,0,0,0,0,0,0,0,0,0],"sum_hessian":[2.4310435E3,1.3254268E3,1.1056168E3,3.1609366E2,1.0093331E3,5.977066E2,5.079102E2,1.8389943E2,1.3219423E2,6.4389575E2,3.6543732E2,2.5753395E1,5.719532E2,2.1534344E1,4.8637585E2,1.7688283E2,7.0166044E0,1.2654712E2,5.6471143E0,5.0978796E2,1.3410782E2,2.6233347E2,1.0310387E2,1.9147293E1,6.6061025E0,1.576952E2,4.1425803E2,7.7175236E0,1.3816821E1,1.9616287E2,2.9021298E2,1.5490842E2,2.197441E1,5.792212E0,1.2243927E0,7.112799E1,5.541913E1,3.2534106E2,1.8444687E2,6.1693825E1,7.2413994E1,2.4099263E2,2.1340826E1,7.023038E1,3.287349E1,1.6451065E1,2.6962273E0,2.8810182E0,3.7250843E0,1.5373119E2,3.9640079E0,1.6294785E2,2.5131017E2,3.4543195E0,1.0362501E1,1.6616678E2,2.9996096E1,2.617296E2,2.8483376E1],"tree_param":{"num_deleted":"0","num_feature":"25","num_nodes":"59","size_leaf_vector":"1"}},{"base_weights":[3.3652466E-3,-6.775242E-1,8.21486E-1,4.844265E-1,-1.0407851E0,1.1099219E0,4.5104197E-1,8.64684E-1,-4.601752E-2,-6.772105E-1,-1.6777036E0,-3.8280904E-2,1.1612113E0,-1.35122E0,5.347311E-1,9.048821E-1,-1.3326743E-1,5.2927617E-2,-1.93339E-2,-4.8592514E-1,-1.3950392E0,-1.8777171E0,-1.1557659E0,3.839145E-1,-1.0506711E0,1.2020774E0,6.964539E-1,1.7811228E-3,-1.4686378E0,2.5215495E-1,7.226217E-1,8.220072E-3,1.2729775E-2,-8.363025E-3,5.0012385E-3,4.002654E-3,-3.914417E-3,-7.4556544E-3,-2.599041E-4,-9.338195E-3,-1.7698945E-2,-1.9178152E-2,-1.3595501E-2,-8.824173E-3,-1.6965281E-2,5.7257973E-3,-6.09036E-3,2.0853616E-3,-1.750874E-2,1.2792443E-2,1.025788E-2,3.1112756E-3,1.2205498E-2,-1.7296646E-2,-4.263445E-3,-3.7634053E-4,5.075248E-3,7.968782E-3,6.8776816E-4],"categories":[],"categories_nodes":[],"categories_segments":[],"categories_sizes":[],"default_left":[0,0,0,0,0,0,0,0,0,0,0,0,0,0,0,0,0,0,0,0,0,0,0,0,0,0,0,0,0,0,0,0,0,0,0,0,0,0,0,0,0,0,0,0,0,0,0,0,0,0,0,0,0,0,0,0,0,0,0],"id":14,"left_children":[1,3,5,7,9,11,13,15,17,19,21,23,25,27,29,31,33,35,-1,37,39,41,43,45,47,49,51,-1,53,55,57,-1,-1,-1,-1,-1,-1,-1,-1,-1,-1,-1,-1,-1,-1,-1,-1,-1,-1,-1,-1,-1,-1,-1,-1,-1,-1,-1,-1],"loss_changes":[1.3542186E3,5.605387E2,1.1748749E2,6.391777E1,2.3300623E2,3.656598E1,7.388814E1,7.522278E0,2.4973425E1,8.7936615E1,3.6117554E1,1.2151435E1,1.0438293E1,4.177891E0,2.4467896E1,4.368164E0,3.987731E0,1.9838963E1,0E0,6.101561E1,2.1731537E1,2.8684692E0,1.3906906E1,4.119598E0,7.7331076E0,6.0924683E0,9.790352E0,0E0,4.802494E0,1.3854391E1,1.345842E1,0E0,0E0,0E0,0E0,0E0,0E0,0E0,0E0,0E0,0E0,0E0,0E0,0E0,0E0,0E0,0E0,0E0,0E0,0E0,0E0,0E0,0E0,0E0,0E0,0E0,0E0,0E0,0E0],"parents":[2147483647,0,0,1,1,2,2,3,3,4,4,5,5,6,6,7,7,8,8,9,9,10,10,11,11,12,12,13,13,14,14,15,15,16,16,17,17,19,19,20,20,21,21,22,22,23,23,24,24,25,25,26,26,28,28,29,29,30,30],"right_children":[2,4,6,8,10,12,14,16,18,20,22,24,26,28,30,32,34,36,-1,38,40,42,44,46,48,50,52,-1,54,56,58,-1,-1,-1,-1,-1,-1,-1,-1,-1,-1,-1,-1,-1,-1,-1,-1,-1,-1,-1,-1,-1,-1,-1,-1,-1,-1,-1,-1],"split_conditions":[1E0,-1.0823982E0,-6.749042E-1,1E0,1E0,1E0,1E0,-2.7899173E-1,1E0,1E0,8.918726E-1,-9.194006E-1,1E0,-6.341548E-1,1E0,1E0,1E0,-1.2453958E0,-1.93339E-2,1E0,1E0,1E0,1.6070621E0,3.2553962E-1,5.648995E-2,-1.0008994E0,9.63287E-1,1.7811228E-3,4.6670765E-1,1E0,9.5507175E-1,8.220072E-3,1.2729775E-2,-8.363025E-3,5.0012385E-3,4.002654E-3,-3.914417E-3,-7.4556544E-3,-2.599041E-4,-9.338195E-3,-1.7698945E-2,-1.9178152E-2,-1.3595501E-2,-8.824173E-3,-1.6965281E-2,5.7257973E-3,-6.09036E-3,2.0853616E-3,-1.750874E-2,1.2792443E-2,1.025788E-2,3.1112756E-3,1.2205498E-2,-1.7296646E-2,-4.263445E-3,-3.7634053E-4,5.075248E-3,7.968782E-3,6.8776816E-4],"split_indices":[13,3,3,8,18,15,15,12,17,16,12,3,5,3,20,0,4,3,0,20,17,20,3,12,12,3,12,0,12,10,3,0,0,0,0,0,0,0,0,0,0,0,0,0,0,0,0,0,0,0,0,0,0,0,0,0,0,0,0],"split_type":[0,0,0,0,0,0,0,0,0,0,0,0,0,0,0,0,0,0,0,0,0,0,0,0,0,0,0,0,0,0,0,0,0,0,0,0,0,0,0,0,0,0,0,0,0,0,0,0,0,0,0,0,0,0,0,0,0,0,0],"sum_hessian":[2.4290557E3,1.3258092E3,1.1032466E3,3.156896E2,1.01011957E3,6.1915924E2,4.840873E2,1.8350845E2,1.3218115E2,6.443602E2,3.657593E2,2.6485586E1,5.9267365E2,2.0809298E1,4.63278E2,1.764925E2,7.0159574E0,1.2652032E2,5.6608458E0,5.101054E2,1.3425484E2,2.6254932E2,1.0320999E2,1.9129025E1,7.356561E0,5.4331366E2,4.935999E1,1.4469028E0,1.9362396E1,1.8595491E2,2.773231E2,1.4669745E2,2.9795048E1,3.17334E0,3.8426173E0,7.1069016E1,5.5451298E1,3.256499E2,1.844555E2,6.175861E1,7.249623E1,2.4118425E2,2.1365072E1,7.030399E1,3.2906002E1,1.6430506E1,2.698518E0,2.8798218E0,4.4767394E0,3.7354544E2,1.6976823E2,2.9364347E1,1.9995642E1,1.4957129E1,4.4052672E0,8.750663E1,9.844829E1,2.4884338E2,2.84797E1],"tree_param":{"num_deleted":"0","num_feature":"25","num_nodes":"59","size_leaf_vector":"1"}},{"base_weights":[3.310124E-3,-6.706674E-1,8.1506896E-1,4.8020247E-1,-1.029751E0,1.114665E0,4.6225154E-1,8.5797024E-1,-4.5704678E-2,-6.700357E-1,-1.6598821E0,1.950823E-2,1.164102E0,-1.3633081E0,5.460677E-1,8.9795095E-1,-1.3234784E-1,5.241177E-2,-1.9133287E-2,-2.858774E-1,-1.019309E0,-1.8578796E0,-1.1433796E0,3.8040826E-1,-9.3651193E-1,1.3831065E0,1.0777082E0,-1.8551525E-2,-9.820279E-1,2.8298053E-1,7.227089E-1,9.582088E-3,4.5042806E-3,2.6156981E-3,-1.27419615E-2,3.9664432E-3,-3.873797E-3,-5.545578E-3,1.0282676E-3,-5.523914E-3,-1.2841528E-2,-1.897573E-2,-1.3452301E-2,-8.728536E-3,-1.6786974E-2,5.6785773E-3,-6.04227E-3,2.070524E-3,-1.6756862E-2,1.4105879E-2,2.5053686E-3,8.411767E-3,1.22727E-2,7.969541E-4,-1.3113737E-2,4.00436E-3,-3.5863596E-3,7.936695E-3,6.812078E-4],"categories":[],"categories_nodes":[],"categories_segments":[],"categories_sizes":[],"default_left":[0,0,0,0,0,0,0,0,0,0,0,0,0,0,0,0,0,0,0,0,0,0,0,0,0,0,0,0,0,0,0,0,0,0,0,0,0,0,0,0,0,0,0,0,0,0,0,0,0,0,0,0,0,0,0,0,0,0,0],"id":15,"left_children":[1,3,5,7,9,11,13,15,17,19,21,23,25,27,29,31,33,35,-1,37,39,41,43,45,47,49,51,-1,53,55,57,-1,-1,-1,-1,-1,-1,-1,-1,-1,-1,-1,-1,-1,-1,-1,-1,-1,-1,-1,-1,-1,-1,-1,-1,-1,-1,-1,-1],"loss_changes":[1.3288955E3,5.4893097E2,1.15953E2,6.2875122E1,2.2823499E2,3.2199768E1,7.842681E1,7.4086456E0,2.4502277E1,8.635925E1,3.540979E1,9.57638E0,9.283447E0,2.4111557E0,2.2386337E1,4.344208E0,3.9389036E0,1.945486E1,0E0,3.232081E1,4.107138E1,2.8137207E0,1.3640289E1,4.054921E0,6.781514E0,4.550537E0,1.3573608E1,0E0,5.293659E0,1.4983748E1,1.3425644E1,0E0,0E0,0E0,0E0,0E0,0E0,0E0,0E0,0E0,0E0,0E0,0E0,0E0,0E0,0E0,0E0,0E0,0E0,0E0,0E0,0E0,0E0,0E0,0E0,0E0,0E0,0E0,0E0],"parents":[2147483647,0,0,1,1,2,2,3,3,4,4,5,5,6,6,7,7,8,8,9,9,10,10,11,11,12,12,13,13,14,14,15,15,16,16,17,17,19,19,20,20,21,21,22,22,23,23,24,24,25,25,26,26,28,28,29,29,30,30],"right_children":[2,4,6,8,10,12,14,16,18,20,22,24,26,28,30,32,34,36,-1,38,40,42,44,46,48,50,52,-1,54,56,58,-1,-1,-1,-1,-1,-1,-1,-1,-1,-1,-1,-1,-1,-1,-1,-1,-1,-1,-1,-1,-1,-1,-1,-1,-1,-1,-1,-1],"split_conditions":[1E0,-1.0823982E0,-7.156536E-1,1E0,1E0,1E0,1E0,-2.7899173E-1,1E0,1E0,8.918726E-1,-9.194006E-1,-1.2453958E0,1E0,1E0,1E0,1E0,-1.2453958E0,-1.9133287E-2,1E0,1E0,1E0,1.6070621E0,3.2553962E-1,5.648995E-2,1E0,5.1819247E-1,-1.8551525E-2,1.2956516E-1,7.9207414E-1,9.5507175E-1,9.582088E-3,4.5042806E-3,2.6156981E-3,-1.27419615E-2,3.9664432E-3,-3.873797E-3,-5.545578E-3,1.0282676E-3,-5.523914E-3,-1.2841528E-2,-1.897573E-2,-1.3452301E-2,-8.728536E-3,-1.6786974E-2,5.6785773E-3,-6.04227E-3,2.070524E-3,-1.6756862E-2,1.4105879E-2,2.5053686E-3,8.411767E-3,1.22727E-2,7.969541E-4,-1.3113737E-2,4.00436E-3,-3.5863596E-3,7.936695E-3,6.812078E-4],"split_indices":[13,3,3,8,18,15,15,12,17,5,12,3,3,10,20,5,6,3,0,20,17,20,3,12,12,8,12,0,12,3,3,0,0,0,0,0,0,0,0,0,0,0,0,0,0,0,0,0,0,0,0,0,0,0,0,0,0,0,0],"split_type":[0,0,0,0,0,0,0,0,0,0,0,0,0,0,0,0,0,0,0,0,0,0,0,0,0,0,0,0,0,0,0,0,0,0,0,0,0,0,0,0,0,0,0,0,0,0,0,0,0,0,0,0,0,0,0,0,0,0,0],"sum_hessian":[2.42695E3,1.3261028E3,1.1008472E3,3.1528162E2,1.01082117E3,5.9415717E2,5.0669E2,1.831154E2,1.3216623E2,6.4479706E2,3.660241E2,2.5722849E1,5.684343E2,2.1572134E1,4.8511786E2,1.7609926E2,7.0161366E0,1.2649281E2,5.6734185E0,3.0792996E2,3.3686707E2,2.6271652E2,1.033076E2,1.911063E1,6.6122193E0,1.565576E2,4.1187674E2,7.732178E0,1.3839955E1,1.9591963E2,2.8919824E2,1.54196E2,2.1903257E1,5.789712E0,1.2264249E0,7.101008E1,5.5482735E1,1.8182326E2,1.2610671E2,1.2303789E2,2.138292E2,2.4132939E2,2.1387114E1,7.037416E1,3.2933445E1,1.6409885E1,2.700743E0,2.8786285E0,3.733591E0,1.5260912E2,3.9484863E0,1.6211557E2,2.4976117E2,3.4561772E0,1.0383779E1,1.6592162E2,2.9998024E1,2.6072217E2,2.8476055E1],"tree_param":{"num_deleted":"0","num_feature":"25","num_nodes":"59","size_leaf_vector":"1"}},{"base_weights":[3.2486091E-3,-6.638991E-1,8.0870676E-1,4.75982E-1,-1.0188526E0,1.0945262E0,4.4294736E-1,8.5125726E-1,-4.539418E-2,-6.6289204E-1,-1.6425002E0,-3.888864E-2,1.1454113E0,-1.3244164E0,5.2534366E-1,9.129858E-1,1.8890627E-1,5.1901214E-2,-1.8937996E-2,-4.7450516E-1,-1.3697337E0,-1.8385835E0,-1.1312168E0,3.7693647E-1,-1.033286E0,1.1862488E0,6.821052E-1,1.7930331E-3,-1.4399309E0,2.4717231E-1,7.1074253E-1,9.705061E-3,4.471899E-3,4.5593707E-3,-8.289276E-3,3.930561E-3,-3.8336497E-3,-7.2890213E-3,-2.3254473E-4,-9.1777E-3,-1.737055E-2,-1.8778963E-2,-1.3311897E-2,-8.634349E-3,-1.6612967E-2,5.6317765E-3,-5.9946575E-3,2.0557896E-3,-1.7206347E-2,1.2632447E-2,1.0106123E-2,2.9883417E-3,1.205496E-2,-1.698575E-2,-4.1108425E-3,-4.104079E-4,5.0136107E-3,7.840604E-3,6.7470974E-4],"categories":[],"categories_nodes":[],"categories_segments":[],"categories_sizes":[],"default_left":[0,0,0,0,0,0,0,0,0,0,0,0,0,0,0,0,0,0,0,0,0,0,0,0,0,0,0,0,0,0,0,0,0,0,0,0,0,0,0,0,0,0,0,0,0,0,0,0,0,0,0,0,0,0,0,0,0,0,0],"id":16,"left_children":[1,3,5,7,9,11,13,15,17,19,21,23,25,27,29,31,33,35,-1,37,39,41,43,45,47,49,51,-1,53,55,57,-1,-1,-1,-1,-1,-1,-1,-1,-1,-1,-1,-1,-1,-1,-1,-1,-1,-1,-1,-1,-1,-1,-1,-1,-1,-1,-1,-1],"loss_changes":[1.3040575E3,5.3754175E2,1.1445056E2,6.184124E1,2.2367847E2,3.559912E1,7.117078E1,7.339035E0,2.4044073E1,8.540585E1,3.4736755E1,1.174195E1,1.0354248E1,4.0520477E0,2.3708138E1,4.0617065E0,4.977512E0,1.9078314E1,0E0,5.8735428E1,2.0895126E1,2.7628784E0,1.3384277E1,3.9912827E0,7.4748964E0,6.0377197E0,9.699263E0,0E0,4.728657E0,1.3701829E1,1.3028397E1,0E0,0E0,0E0,0E0,0E0,0E0,0E0,0E0,0E0,0E0,0E0,0E0,0E0,0E0,0E0,0E0,0E0,0E0,0E0,0E0,0E0,0E0,0E0,0E0,0E0,0E0,0E0,0E0],"parents":[2147483647,0,0,1,1,2,2,3,3,4,4,5,5,6,6,7,7,8,8,9,9,10,10,11,11,12,12,13,13,14,14,15,15,16,16,17,17,19,19,20,20,21,21,22,22,23,23,24,24,25,25,26,26,28,28,29,29,30,30],"right_children":[2,4,6,8,10,12,14,16,18,20,22,24,26,28,30,32,34,36,-1,38,40,42,44,46,48,50,52,-1,54,56,58,-1,-1,-1,-1,-1,-1,-1,-1,-1,-1,-1,-1,-1,-1,-1,-1,-1,-1,-1,-1,-1,-1,-1,-1,-1,-1,-1,-1],"split_conditions":[1E0,-1.0823982E0,-6.749042E-1,1E0,1E0,1E0,1E0,-3.2549414E-1,1E0,1E0,8.918726E-1,-9.194006E-1,1E0,-6.341548E-1,1E0,1E0,-1.163897E0,-1.2453958E0,-1.8937996E-2,1E0,1E0,1E0,1.6070621E0,3.2553962E-1,5.648995E-2,-1.0008994E0,9.63287E-1,1.7930331E-3,4.6670765E-1,1E0,9.5507175E-1,9.705061E-3,4.471899E-3,4.5593707E-3,-8.289276E-3,3.930561E-3,-3.8336497E-3,-7.2890213E-3,-2.3254473E-4,-9.1777E-3,-1.737055E-2,-1.8778963E-2,-1.3311897E-2,-8.634349E-3,-1.6612967E-2,5.6317765E-3,-5.9946575E-3,2.0557896E-3,-1.7206347E-2,1.2632447E-2,1.0106123E-2,2.9883417E-3,1.205496E-2,-1.698575E-2,-4.1108425E-3,-4.104079E-4,5.0136107E-3,7.840604E-3,6.7470974E-4],"split_indices":[13,3,3,8,18,15,15,12,17,16,12,3,5,3,20,5,3,3,0,20,17,20,3,12,12,3,12,0,12,9,3,0,0,0,0,0,0,0,0,0,0,0,0,0,0,0,0,0,0,0,0,0,0,0,0,0,0,0,0],"split_type":[0,0,0,0,0,0,0,0,0,0,0,0,0,0,0,0,0,0,0,0,0,0,0,0,0,0,0,0,0,0,0,0,0,0,0,0,0,0,0,0,0,0,0,0,0,0,0,0,0,0,0,0,0,0,0,0,0,0,0],"sum_hessian":[2.4247886E3,1.3263611E3,1.0984274E3,3.1486795E2,1.01149316E3,6.154763E2,4.8295108E2,1.8271846E2,1.321495E2,6.452598E2,3.6623337E2,2.6454884E1,5.890214E2,2.0841278E1,4.621098E2,1.6679538E2,1.5923077E1,1.26464645E2,5.684858E0,5.1079456E2,1.3446524E2,2.6283643E2,1.03396935E2,1.9092113E1,7.36277E0,5.3987445E2,4.914696E1,1.4474022E0,1.9393877E1,1.8574791E2,2.7636188E2,1.4749762E2,1.9297764E1,1.3051136E1,2.8719409E0,7.095119E1,5.551346E1,3.262517E2,1.8454288E2,6.185521E1,7.261004E1,2.4142943E2,2.1407007E1,7.044097E1,3.2955967E1,1.638921E1,2.7029035E0,2.8774378E0,4.485332E0,3.7102924E2,1.6884521E2,2.9278055E1,1.9868906E1,1.4977658E1,4.4162183E0,8.744103E1,9.830688E1,2.4788943E2,2.8472437E1],"tree_param":{"num_deleted":"0","num_feature":"25","num_nodes":"59","size_leaf_vector":"1"}},{"base_weights":[3.1922047E-3,-6.57269E-1,8.0243206E-1,4.7182277E-1,-1.0082122E0,1.0993518E0,4.5404696E-1,8.4463626E-1,-4.5085967E-2,-6.5592104E-1,-1.6255409E0,1.811659E-2,1.1484085E0,-1.3368057E0,5.365894E-1,8.843207E-1,-1.3398658E-1,5.1395923E-2,-1.8747818E-2,-4.6951568E-1,-1.3551663E0,-1.819806E0,-1.1192712E0,3.734985E-1,-9.20935E-1,1.3672951E0,1.062209E0,-8.201531E-1,-1.6601192E0,2.7767012E-1,7.1083426E-1,8.014706E-3,1.2533937E-2,-8.290684E-3,4.9416977E-3,3.895002E-3,-3.7939656E-3,-7.2103143E-3,-2.3022172E-4,-9.079205E-3,-1.7187538E-2,-1.8587613E-2,-1.3174196E-2,-8.541581E-3,-1.6443098E-2,5.585388E-3,-5.9475144E-3,2.0411625E-3,-1.6467128E-2,1.3948108E-2,2.3970327E-3,8.260964E-3,1.2117084E-2,-1.6512992E-2,-1.3437489E-3,-1.8864142E-2,-7.4343937E-3,3.9423923E-3,-3.5802163E-3,7.809035E-3,6.682738E-4],"categories":[],"categories_nodes":[],"categories_segments":[],"categories_sizes":[],"default_left":[0,0,0,0,0,0,0,0,0,0,0,0,0,0,0,0,0,0,0,0,0,0,0,0,0,0,0,0,0,0,0,0,0,0,0,0,0,0,0,0,0,0,0,0,0,0,0,0,0,0,0,0,0,0,0,0,0,0,0,0,0],"id":17,"left_children":[1,3,5,7,9,11,13,15,17,19,21,23,25,27,29,31,33,35,-1,37,39,41,43,45,47,49,51,53,55,57,59,-1,-1,-1,-1,-1,-1,-1,-1,-1,-1,-1,-1,-1,-1,-1,-1,-1,-1,-1,-1,-1,-1,-1,-1,-1,-1,-1,-1,-1,-1],"loss_changes":[1.2797963E3,5.2648883E2,1.1297522E2,6.0829117E1,2.1924792E2,3.1355103E1,7.558139E1,7.237976E0,2.3598309E1,8.364963E1,3.409607E1,9.250852E0,9.223877E0,2.4136963E0,2.1676773E1,4.386566E0,3.9081795E0,1.8709158E1,0E0,5.748947E1,2.0485153E1,2.7161255E0,1.3138306E1,3.928662E0,6.554914E0,4.5179443E0,1.3487335E1,5.863083E0,1.2787399E0,1.4715289E1,1.2996735E1,0E0,0E0,0E0,0E0,0E0,0E0,0E0,0E0,0E0,0E0,0E0,0E0,0E0,0E0,0E0,0E0,0E0,0E0,0E0,0E0,0E0,0E0,0E0,0E0,0E0,0E0,0E0,0E0,0E0,0E0],"parents":[2147483647,0,0,1,1,2,2,3,3,4,4,5,5,6,6,7,7,8,8,9,9,10,10,11,11,12,12,13,13,14,14,15,15,16,16,17,17,19,19,20,20,21,21,22,22,23,23,24,24,25,25,26,26,27,27,28,28,29,29,30,30],"right_children":[2,4,6,8,10,12,14,16,18,20,22,24,26,28,30,32,34,36,-1,38,40,42,44,46,48,50,52,54,56,58,60,-1,-1,-1,-1,-1,-1,-1,-1,-1,-1,-1,-1,-1,-1,-1,-1,-1,-1,-1,-1,-1,-1,-1,-1,-1,-1,-1,-1,-1,-1],"split_conditions":[1E0,-1.0823982E0,-7.156536E-1,1E0,1E0,1E0,1E0,-2.7899173E-1,1E0,1E0,8.918726E-1,-9.194006E-1,-1.2453958E0,1E0,1E0,1E0,1E0,-1.2453958E0,-1.8747818E-2,1E0,1E0,1E0,1.6070621E0,3.2553962E-1,5.648995E-2,1E0,5.1819247E-1,1E0,1E0,7.9207414E-1,9.5507175E-1,8.014706E-3,1.2533937E-2,-8.290684E-3,4.9416977E-3,3.895002E-3,-3.7939656E-3,-7.2103143E-3,-2.3022172E-4,-9.079205E-3,-1.7187538E-2,-1.8587613E-2,-1.3174196E-2,-8.541581E-3,-1.6443098E-2,5.585388E-3,-5.9475144E-3,2.0411625E-3,-1.6467128E-2,1.3948108E-2,2.3970327E-3,8.260964E-3,1.2117084E-2,-1.6512992E-2,-1.3437489E-3,-1.8864142E-2,-7.4343937E-3,3.9423923E-3,-3.5802163E-3,7.809035E-3,6.682738E-4],"split_indices":[13,3,3,8,18,15,15,12,17,16,12,3,3,9,20,0,4,3,0,20,17,20,3,12,12,8,12,7,20,3,3,0,0,0,0,0,0,0,0,0,0,0,0,0,0,0,0,0,0,0,0,0,0,0,0,0,0,0,0,0,0],"split_type":[0,0,0,0,0,0,0,0,0,0,0,0,0,0,0,0,0,0,0,0,0,0,0,0,0,0,0,0,0,0,0,0,0,0,0,0,0,0,0,0,0,0,0,0,0,0,0,0,0,0,0,0,0,0,0,0,0,0,0,0,0],"sum_hessian":[2.4224683E3,1.3264875E3,1.0959808E3,3.144526E2,1.0120349E3,5.905309E2,5.0544992E2,1.823216E2,1.3213101E2,6.4564624E2,3.6638867E2,2.5689537E1,5.648414E2,2.1600777E1,4.8384915E2,1.7530896E2,7.0126405E0,1.2643583E2,5.695191E0,5.110749E2,1.3457132E2,2.6291046E2,1.0347821E2,1.907348E1,6.6160555E0,1.5539206E2,4.094493E2,9.675736E0,1.1925041E1,1.9567676E2,2.881724E2,1.4576009E2,2.9548876E1,3.1771474E0,3.835493E0,7.089235E1,5.554348E1,3.2652444E2,1.8455045E2,6.191156E1,7.265975E1,2.4148564E2,2.142481E1,7.050451E1,3.2973698E1,1.636848E1,2.705001E0,2.8762507E0,3.7398047E0,1.5145915E2,3.9329054E0,1.6127109E2,2.4817822E2,3.7377527E0,5.937983E0,8.715598E0,3.2094426E0,1.6567598E2,3.0000774E1,2.5970355E2,2.846885E1],"tree_param":{"num_deleted":"0","num_feature":"25","num_nodes":"61","size_leaf_vector":"1"}},{"base_weights":[3.12731E-3,-6.5074134E-1,7.9619735E-1,4.677313E-1,-9.977603E-1,1.0795159E0,4.349875E-1,8.3812743E-1,-4.4780016E-2,-6.490494E-1,-1.608987E0,-3.9466072E-2,1.1300094E0,-1.2993467E0,5.161336E-1,8.993714E-1,1.8307675E-1,5.089585E-2,-1.8562559E-2,-2.739349E-1,-9.8976016E-1,-1.8015254E0,-1.1075355E0,3.700943E-1,-1.0164925E0,1.1708316E0,6.6804E-1,1.8108594E-3,-1.4132313E0,2.422849E-1,6.990919E-1,9.567235E-3,4.3605543E-3,4.480165E-3,-8.226829E-3,3.8597658E-3,-3.7547406E-3,-5.3337133E-3,1.0227597E-3,-1.1092535E-2,-3.5681234E-5,-1.840145E-2,-1.303911E-2,-8.450191E-3,-1.6277205E-2,5.5394107E-3,-5.900834E-3,2.0266387E-3,-1.6917095E-2,1.2476931E-2,9.957758E-3,2.8678179E-3,1.1908378E-2,-1.6690781E-2,-3.98511E-3,-4.4628175E-4,4.955293E-3,7.714908E-3,6.618977E-4],"categories":[],"categories_nodes":[],"categories_segments":[],"categories_sizes":[],"default_left":[0,0,0,0,0,0,0,0,0,0,0,0,0,0,0,0,0,0,0,0,0,0,0,0,0,0,0,0,0,0,0,0,0,0,0,0,0,0,0,0,0,0,0,0,0,0,0,0,0,0,0,0,0,0,0,0,0,0,0],"id":18,"left_children":[1,3,5,7,9,11,13,15,17,19,21,23,25,27,29,31,33,35,-1,37,39,41,43,45,47,49,51,-1,53,55,57,-1,-1,-1,-1,-1,-1,-1,-1,-1,-1,-1,-1,-1,-1,-1,-1,-1,-1,-1,-1,-1,-1,-1,-1,-1,-1,-1,-1],"loss_changes":[1.255984E3,5.157226E2,1.11540344E2,5.984063E1,2.1497424E2,3.4664062E1,6.861676E1,7.1737366E0,2.3164516E1,8.241995E1,3.3485596E1,1.134879E1,1.0274536E1,3.942112E0,2.2974777E1,4.021042E0,4.870645E0,1.8347263E1,0E0,3.0246819E1,3.9906006E1,2.6729126E0,1.2901825E1,3.8670456E0,7.2300005E0,5.987976E0,9.610725E0,0E0,4.6349983E0,1.3576064E1,1.2613571E1,0E0,0E0,0E0,0E0,0E0,0E0,0E0,0E0,0E0,0E0,0E0,0E0,0E0,0E0,0E0,0E0,0E0,0E0,0E0,0E0,0E0,0E0,0E0,0E0,0E0,0E0,0E0,0E0],"parents":[2147483647,0,0,1,1,2,2,3,3,4,4,5,5,6,6,7,7,8,8,9,9,10,10,11,11,12,12,13,13,14,14,15,15,16,16,17,17,19,19,20,20,21,21,22,22,23,23,24,24,25,25,26,26,28,28,29,29,30,30],"right_children":[2,4,6,8,10,12,14,16,18,20,22,24,26,28,30,32,34,36,-1,38,40,42,44,46,48,50,52,-1,54,56,58,-1,-1,-1,-1,-1,-1,-1,-1,-1,-1,-1,-1,-1,-1,-1,-1,-1,-1,-1,-1,-1,-1,-1,-1,-1,-1,-1,-1],"split_conditions":[1E0,-1.0823982E0,-6.749042E-1,1E0,1E0,1E0,1E0,-3.2549414E-1,1E0,1E0,8.918726E-1,-9.194006E-1,1E0,-6.341548E-1,1E0,1E0,-1.163897E0,-1.2453958E0,-1.8562559E-2,1E0,1.2838215E0,1E0,1.6070621E0,3.2553962E-1,5.648995E-2,-1.0008994E0,9.63287E-1,1.8108594E-3,4.6670765E-1,1E0,9.5507175E-1,9.567235E-3,4.3605543E-3,4.480165E-3,-8.226829E-3,3.8597658E-3,-3.7547406E-3,-5.3337133E-3,1.0227597E-3,-1.1092535E-2,-3.5681234E-5,-1.840145E-2,-1.303911E-2,-8.450191E-3,-1.6277205E-2,5.5394107E-3,-5.900834E-3,2.0266387E-3,-1.6917095E-2,1.2476931E-2,9.957758E-3,2.8678179E-3,1.1908378E-2,-1.6690781E-2,-3.98511E-3,-4.4628175E-4,4.955293E-3,7.714908E-3,6.618977E-4],"split_indices":[13,3,3,8,18,15,15,12,17,5,12,3,5,3,20,5,3,3,0,20,12,20,3,12,12,3,12,0,12,10,3,0,0,0,0,0,0,0,0,0,0,0,0,0,0,0,0,0,0,0,0,0,0,0,0,0,0,0,0],"split_type":[0,0,0,0,0,0,0,0,0,0,0,0,0,0,0,0,0,0,0,0,0,0,0,0,0,0,0,0,0,0,0,0,0,0,0,0,0,0,0,0,0,0,0,0,0,0,0,0,0,0,0,0,0,0,0,0,0,0,0],"sum_hessian":[2.4200452E3,1.32653E3,1.0935151E3,3.140314E2,1.01249866E3,6.1171875E2,4.8179636E2,1.8192058E2,1.3211082E2,6.46007E2,3.664916E2,2.6421108E1,5.8529767E2,2.0863747E1,4.6093262E2,1.6602509E2,1.5895493E1,1.2640639E2,5.704443E0,3.083381E2,3.376689E2,2.6293997E2,1.0355164E2,1.905474E1,7.366367E0,5.3636694E2,4.8930706E1,1.4481785E0,1.9415567E1,1.8554156E2,2.7539105E2,1.4678963E2,1.9235453E1,1.3020222E1,2.8752708E0,7.083358E1,5.557281E1,1.8224411E2,1.2609399E2,3.0106512E2,3.6603783E1,2.4149939E2,2.1440582E1,7.0564865E1,3.298678E1,1.6347706E1,2.7070363E0,2.8750668E0,4.4913E0,3.6845993E2,1.67907E2,2.9191166E1,1.9739542E1,1.4990952E1,4.424616E0,8.737449E1,9.816708E1,2.4692577E2,2.8465288E1],"tree_param":{"num_deleted":"0","num_feature":"25","num_nodes":"59","size_leaf_vector":"1"}},{"base_weights":[3.0801045E-3,-6.442813E-1,7.9005885E-1,4.6365827E-1,-9.8741925E-1,1.0844196E0,4.459799E-1,7.6501405E-1,-1.5812616E-1,-6.421913E-1,-1.5928236E0,1.6769245E-2,1.1331091E0,-1.3119836E0,5.2728915E-1,8.609037E-1,-1.3260917E-3,2.991026E-1,-8.821494E-1,-4.5905706E-1,-1.3290911E0,-1.7837224E0,-1.0960037E0,7.4087524E-1,-4.3031824E-1,1.3519795E0,1.0470706E0,-8.012707E-1,-1.6322399E0,2.7245998E-1,6.991863E-1,7.876966E-3,1.2124739E-2,3.6912549E-3,-9.81733E-3,-6.619822E-3,4.278977E-3,-3.2419174E-3,-1.1941312E-2,-5.866012E-4,-7.3005324E-3,-8.864309E-3,-1.6895248E-2,-1.822027E-2,-1.290656E-2,-8.3601475E-3,-1.611514E-2,9.681312E-3,-1.644171E-3,-9.258385E-3,1.5424384E-3,1.3795419E-2,2.2905937E-3,8.113182E-3,1.1965552E-2,-1.6248234E-2,-1.2324234E-3,-1.8549614E-2,-7.306851E-3,3.8817206E-3,-3.5749732E-3,7.6838285E-3,6.555815E-4],"categories":[],"categories_nodes":[],"categories_segments":[],"categories_sizes":[],"default_left":[0,0,0,0,0,0,0,0,0,0,0,0,0,0,0,0,0,0,0,0,0,0,0,0,0,0,0,0,0,0,0,0,0,0,0,0,0,0,0,0,0,0,0,0,0,0,0,0,0,0,0,0,0,0,0,0,0,0,0,0,0,0,0],"id":19,"left_children":[1,3,5,7,9,11,13,15,17,19,21,23,25,27,29,31,33,35,37,39,41,43,45,47,49,51,53,55,57,59,61,-1,-1,-1,-1,-1,-1,-1,-1,-1,-1,-1,-1,-1,-1,-1,-1,-1,-1,-1,-1,-1,-1,-1,-1,-1,-1,-1,-1,-1,-1,-1,-1],"loss_changes":[1.2326758E3,5.0516052E2,1.1012048E2,5.9071625E1,2.1089355E2,3.0538635E1,7.290318E1,1.5585381E1,3.453727E1,8.0829254E1,3.2903625E1,8.9476185E0,9.170959E0,2.3918076E0,2.0992065E1,3.8962402E0,9.29103E0,8.230632E0,6.6327305E0,5.5583275E1,2.0160233E1,2.6331177E0,1.2674316E1,2.328034E0,5.0993714E0,4.4875183E0,1.3406982E1,5.7644744E0,1.2424698E0,1.4457591E1,1.2582947E1,0E0,0E0,0E0,0E0,0E0,0E0,0E0,0E0,0E0,0E0,0E0,0E0,0E0,0E0,0E0,0E0,0E0,0E0,0E0,0E0,0E0,0E0,0E0,0E0,0E0,0E0,0E0,0E0,0E0,0E0,0E0,0E0],"parents":[2147483647,0,0,1,1,2,2,3,3,4,4,5,5,6,6,7,7,8,8,9,9,10,10,11,11,12,12,13,13,14,14,15,15,16,16,17,17,18,18,19,19,20,20,21,21,22,22,23,23,24,24,25,25,26,26,27,27,28,28,29,29,30,30],"right_children":[2,4,6,8,10,12,14,16,18,20,22,24,26,28,30,32,34,36,38,40,42,44,46,48,50,52,54,56,58,60,62,-1,-1,-1,-1,-1,-1,-1,-1,-1,-1,-1,-1,-1,-1,-1,-1,-1,-1,-1,-1,-1,-1,-1,-1,-1,-1,-1,-1,-1,-1,-1,-1],"split_conditions":[1E0,-1.0823982E0,-7.156536E-1,1E0,1E0,1E0,1E0,-3.2549414E-1,-1.2453958E0,1E0,8.918726E-1,-1.0823982E0,-1.2453958E0,1E0,1E0,1E0,-1.163897E0,-1.5129664E0,-1.4980192E0,1E0,1E0,1E0,1.6070621E0,3.1723562E-1,1.8603238E-1,1E0,5.1819247E-1,1E0,1E0,7.9207414E-1,9.5507175E-1,7.876966E-3,1.2124739E-2,3.6912549E-3,-9.81733E-3,-6.619822E-3,4.278977E-3,-3.2419174E-3,-1.1941312E-2,-5.866012E-4,-7.3005324E-3,-8.864309E-3,-1.6895248E-2,-1.822027E-2,-1.290656E-2,-8.3601475E-3,-1.611514E-2,9.681312E-3,-1.644171E-3,-9.258385E-3,1.5424384E-3,1.3795419E-2,2.2905937E-3,8.113182E-3,1.1965552E-2,-1.6248234E-2,-1.2324234E-3,-1.8549614E-2,-7.306851E-3,3.8817206E-3,-3.5749732E-3,7.6838285E-3,6.555815E-4],"split_indices":[13,3,3,16,18,15,15,12,3,16,12,3,3,9,20,0,3,12,12,17,17,20,3,12,12,8,12,7,20,3,3,0,0,0,0,0,0,0,0,0,0,0,0,0,0,0,0,0,0,0,0,0,0,0,0,0,0,0,0,0,0,0,0],"split_type":[0,0,0,0,0,0,0,0,0,0,0,0,0,0,0,0,0,0,0,0,0,0,0,0,0,0,0,0,0,0,0,0,0,0,0,0,0,0,0,0,0,0,0,0,0,0,0,0,0,0,0,0,0,0,0,0,0,0,0,0,0,0,0],"sum_hessian":[2.4175757E3,1.3265496E3,1.0910261E3,3.136076E2,1.01294196E3,5.8683496E2,5.0419113E2,2.1107637E2,1.02531235E2,6.4639825E2,3.665437E2,2.5653612E1,5.6118134E2,2.1619818E1,4.8257132E2,1.8749265E2,2.3583733E1,6.3204056E1,3.932718E1,5.1165442E2,1.3474382E2,2.6292627E2,1.03617455E2,9.54208E0,1.6111534E1,1.5420105E2,4.0698032E2,9.681959E0,1.193786E1,1.954344E2,2.8713693E2,1.5786176E2,2.9630886E1,1.756878E1,6.014952E0,6.9798393E0,5.6224216E1,1.4834984E1,2.4492193E1,2.0701143E2,3.0464297E2,6.2026497E1,7.271733E1,2.414719E2,2.1454374E1,7.062211E1,3.2995346E1,7.5718904E0,1.9701893E0,8.403911E0,7.707623E0,1.5028377E2,3.9172819E0,1.6041583E2,2.4656448E2,3.7412887E0,5.9406705E0,8.724926E0,3.2129333E0,1.6543138E2,3.0003017E1,2.5867517E2,2.8461758E1],"tree_param":{"num_deleted":"0","num_feature":"25","num_nodes":"63","size_leaf_vector":"1"}},{"base_weights":[3.0217948E-3,-6.3793796E-1,7.839611E-1,4.5964903E-1,-9.772793E-1,1.129679E0,4.9357927E-1,7.589499E-1,-1.5672643E-1,-6.3546276E-1,-1.5770354E0,3.3063108E-1,1.1612346E0,-1.2298367E0,5.810592E-1,8.543105E-1,-1.5589911E-3,2.9627752E-1,-8.729788E-1,-2.6687023E-1,-9.70035E-1,-1.7663772E0,-1.0846697E0,-1.6667576E-1,6.882468E-1,1.344097E0,1.070351E0,2.1506356E-2,-1.3973154E0,6.48955E-1,-1.5771957E-2,7.81432E-3,1.20481895E-2,3.6591573E-3,-9.717672E-3,-6.5546613E-3,4.240822E-3,-3.2105285E-3,-1.181339E-2,-5.2306163E-3,1.0482862E-3,-5.1549715E-3,-1.22791035E-2,-1.8043865E-2,-1.2776452E-2,-8.27142E-3,-1.5956758E-2,7.7636805E-3,-1.2105571E-2,1.1232508E-2,-5.848547E-3,1.3716074E-2,2.2735111E-3,6.764747E-3,1.19272E-2,8.223162E-3,-1.112611E-2,1.9653984E-3,-1.5012498E-2,4.0598563E-3,8.004462E-3,-7.660226E-3,3.1164342E-3],"categories":[],"categories_nodes":[],"categories_segments":[],"categories_sizes":[],"default_left":[0,0,0,0,0,0,0,0,0,0,0,0,0,0,0,0,0,0,0,0,0,0,0,0,0,0,0,0,0,0,0,0,0,0,0,0,0,0,0,0,0,0,0,0,0,0,0,0,0,0,0,0,0,0,0,0,0,0,0,0,0,0,0],"id":20,"left_children":[1,3,5,7,9,11,13,15,17,19,21,23,25,27,29,31,33,35,37,39,41,43,45,47,49,51,53,55,57,59,61,-1,-1,-1,-1,-1,-1,-1,-1,-1,-1,-1,-1,-1,-1,-1,-1,-1,-1,-1,-1,-1,-1,-1,-1,-1,-1,-1,-1,-1,-1,-1,-1],"loss_changes":[1.2098392E3,4.9487897E2,1.0882086E2,5.8078514E1,2.0693756E2,1.2137573E1,9.025867E1,1.5351036E1,3.3847637E1,7.96236E1,3.2348877E1,3.7186544E0,6.4942627E0,6.110264E0,2.2942657E1,3.8627472E0,9.119224E0,8.0823E0,6.4897575E0,2.9535892E1,3.912265E1,2.5963135E0,1.2455292E1,1.0077013E1,7.293063E0,4.4367676E0,1.479834E1,4.9196615E0,4.536339E0,1.8378586E1,1.4677648E1,0E0,0E0,0E0,0E0,0E0,0E0,0E0,0E0,0E0,0E0,0E0,0E0,0E0,0E0,0E0,0E0,0E0,0E0,0E0,0E0,0E0,0E0,0E0,0E0,0E0,0E0,0E0,0E0,0E0,0E0,0E0,0E0],"parents":[2147483647,0,0,1,1,2,2,3,3,4,4,5,5,6,6,7,7,8,8,9,9,10,10,11,11,12,12,13,13,14,14,15,15,16,16,17,17,18,18,19,19,20,20,21,21,22,22,23,23,24,24,25,25,26,26,27,27,28,28,29,29,30,30],"right_children":[2,4,6,8,10,12,14,16,18,20,22,24,26,28,30,32,34,36,38,40,42,44,46,48,50,52,54,56,58,60,62,-1,-1,-1,-1,-1,-1,-1,-1,-1,-1,-1,-1,-1,-1,-1,-1,-1,-1,-1,-1,-1,-1,-1,-1,-1,-1,-1,-1,-1,-1,-1,-1],"split_conditions":[1E0,-1.0823982E0,-8.786512E-1,1E0,1E0,1E0,1E0,-3.2549414E-1,-1.2453958E0,1E0,8.918726E-1,1.5779878E-1,-1.2453958E0,1.8291539E-2,9.143223E-1,1E0,-1.163897E0,-1.5129664E0,-1.4980192E0,1E0,1E0,1E0,1.6070621E0,-1.0823982E0,3.2553962E-1,1E0,3.5543403E-1,-6.341548E-1,-8.3790183E-1,1E0,1E0,7.81432E-3,1.20481895E-2,3.6591573E-3,-9.717672E-3,-6.5546613E-3,4.240822E-3,-3.2105285E-3,-1.181339E-2,-5.2306163E-3,1.0482862E-3,-5.1549715E-3,-1.22791035E-2,-1.8043865E-2,-1.2776452E-2,-8.27142E-3,-1.5956758E-2,7.7636805E-3,-1.2105571E-2,1.1232508E-2,-5.848547E-3,1.3716074E-2,2.2735111E-3,6.764747E-3,1.19272E-2,8.223162E-3,-1.112611E-2,1.9653984E-3,-1.5012498E-2,4.0598563E-3,8.004462E-3,-7.660226E-3,3.1164342E-3],"split_indices":[13,3,3,16,18,15,15,12,3,5,12,12,3,12,3,0,3,12,12,20,17,20,3,3,12,8,12,3,3,20,9,0,0,0,0,0,0,0,0,0,0,0,0,0,0,0,0,0,0,0,0,0,0,0,0,0,0,0,0,0,0,0,0],"split_type":[0,0,0,0,0,0,0,0,0,0,0,0,0,0,0,0,0,0,0,0,0,0,0,0,0,0,0,0,0,0,0,0,0,0,0,0,0,0,0,0,0,0,0,0,0,0,0,0,0,0,0,0,0,0,0,0,0,0,0,0,0,0,0],"sum_hessian":[2.415017E3,1.3264829E3,1.0885342E3,3.131751E2,1.0133078E3,4.9560046E2,5.929338E2,2.1065399E2,1.0252112E2,6.467613E2,3.665465E2,1.9264528E1,4.7633594E2,2.8012356E1,5.649214E2,1.8707341E2,2.3580574E1,6.3160633E1,3.9360485E1,3.0859027E2,3.3817105E2,2.6287064E2,1.0367585E2,8.281731E0,1.0982798E1,1.5356532E2,3.2277063E2,3.409479E0,2.4602877E1,5.0714145E2,5.7779964E1,1.575456E2,2.952783E1,1.7554502E1,6.026071E0,6.988631E0,5.6172005E1,1.4839969E1,2.4520515E1,1.8243839E2,1.2615189E2,1.2349484E2,2.146762E2,2.414044E2,2.1466242E1,7.067633E1,3.299952E1,4.4856534E0,3.7960777E0,8.273533E0,2.709265E0,1.4965054E2,3.9147737E0,7.80558E1,2.4471481E2,2.159539E0,1.24994E0,1.4515827E0,2.3151295E1,1.9617926E2,3.109622E2,1.7147652E1,4.0632313E1],"tree_param":{"num_deleted":"0","num_feature":"25","num_nodes":"63","size_leaf_vector":"1"}},{"base_weights":[2.9799244E-3,-6.316807E-1,7.779471E-1,4.5568293E-1,-9.672926E-1,1.057918E0,4.2298827E-1,8.1940746E-1,-4.475377E-2,-6.2880164E-1,-1.5616078E0,-3.9885066E-2,1.1078602E0,-1.2616333E0,5.022053E-1,8.58507E-1,-1.3625862E-1,4.9509294E-2,-1.8246112E-2,-4.4832343E-1,-1.3060716E0,-1.7494715E0,-1.0735273E0,3.6164337E-1,-9.9455005E-1,1.1487956E0,6.462829E-1,1.8256564E-3,-1.3729206E0,2.3427686E-1,6.8185145E-1,7.7658584E-3,1.2253215E-2,2.562642E-3,-1.26958005E-2,3.7598924E-3,-3.645368E-3,-6.9248662E-3,-1.4337654E-4,-8.716216E-3,-1.6600873E-2,-1.787204E-2,-1.2648718E-2,-8.183977E-3,-1.5801921E-2,5.428466E-3,-5.80283E-3,2.0745886E-3,-1.6620396E-2,1.2252955E-2,9.7502675E-3,2.6597022E-3,1.1706605E-2,-1.6269688E-2,-3.7346368E-3,-5.065591E-4,4.8608175E-3,7.5292643E-3,6.396511E-4],"categories":[],"categories_nodes":[],"categories_segments":[],"categories_sizes":[],"default_left":[0,0,0,0,0,0,0,0,0,0,0,0,0,0,0,0,0,0,0,0,0,0,0,0,0,0,0,0,0,0,0,0,0,0,0,0,0,0,0,0,0,0,0,0,0,0,0,0,0,0,0,0,0,0,0,0,0,0,0],"id":21,"left_children":[1,3,5,7,9,11,13,15,17,19,21,23,25,27,29,31,33,35,-1,37,39,41,43,45,47,49,51,-1,53,55,57,-1,-1,-1,-1,-1,-1,-1,-1,-1,-1,-1,-1,-1,-1,-1,-1,-1,-1,-1,-1,-1,-1,-1,-1,-1,-1,-1,-1],"loss_changes":[1.1874899E3,4.8483276E2,1.0757953E2,5.7143555E1,2.031275E2,3.3326294E1,6.482201E1,6.9078064E0,2.2404398E1,7.86344E1,3.1819153E1,1.085499E1,1.0229065E1,3.768322E0,2.1986069E1,4.2990723E0,3.8869698E0,1.7343044E1,0E0,5.4377167E1,1.944632E1,2.562622E0,1.2244347E1,3.7297516E0,7.0626717E0,5.878296E0,9.57773E0,0E0,4.581867E0,1.3383864E1,1.2024643E1,0E0,0E0,0E0,0E0,0E0,0E0,0E0,0E0,0E0,0E0,0E0,0E0,0E0,0E0,0E0,0E0,0E0,0E0,0E0,0E0,0E0,0E0,0E0,0E0,0E0,0E0,0E0,0E0],"parents":[2147483647,0,0,1,1,2,2,3,3,4,4,5,5,6,6,7,7,8,8,9,9,10,10,11,11,12,12,13,13,14,14,15,15,16,16,17,17,19,19,20,20,21,21,22,22,23,23,24,24,25,25,26,26,28,28,29,29,30,30],"right_children":[2,4,6,8,10,12,14,16,18,20,22,24,26,28,30,32,34,36,-1,38,40,42,44,46,48,50,52,-1,54,56,58,-1,-1,-1,-1,-1,-1,-1,-1,-1,-1,-1,-1,-1,-1,-1,-1,-1,-1,-1,-1,-1,-1,-1,-1,-1,-1,-1,-1],"split_conditions":[1E0,-1.0823982E0,-6.749042E-1,1E0,1E0,1E0,1E0,-2.7899173E-1,1E0,1E0,8.918726E-1,-9.194006E-1,1E0,-6.341548E-1,1E0,1E0,1E0,-1.2453958E0,-1.8246112E-2,1E0,1E0,1E0,1.6070621E0,3.2553962E-1,5.648995E-2,-1.0008994E0,9.63287E-1,1.8256564E-3,4.6670765E-1,1E0,9.5507175E-1,7.7658584E-3,1.2253215E-2,2.562642E-3,-1.26958005E-2,3.7598924E-3,-3.645368E-3,-6.9248662E-3,-1.4337654E-4,-8.716216E-3,-1.6600873E-2,-1.787204E-2,-1.2648718E-2,-8.183977E-3,-1.5801921E-2,5.428466E-3,-5.80283E-3,2.0745886E-3,-1.6620396E-2,1.2252955E-2,9.7502675E-3,2.6597022E-3,1.1706605E-2,-1.6269688E-2,-3.7346368E-3,-5.065591E-4,4.8608175E-3,7.5292643E-3,6.396511E-4],"split_indices":[13,3,3,8,18,15,15,12,17,16,12,3,5,3,20,0,6,3,0,20,17,20,3,12,12,3,12,0,12,10,3,0,0,0,0,0,0,0,0,0,0,0,0,0,0,0,0,0,0,0,0,0,0,0,0,0,0,0,0],"split_type":[0,0,0,0,0,0,0,0,0,0,0,0,0,0,0,0,0,0,0,0,0,0,0,0,0,0,0,0,0,0,0,0,0,0,0,0,0,0,0,0,0,0,0,0,0,0,0,0,0,0,0,0,0,0,0,0,0,0,0],"sum_hessian":[2.4123777E3,1.3263479E3,1.0860299E3,3.127377E2,1.0136102E3,6.060403E2,4.7998956E2,1.8073763E2,1.3200008E2,6.4710876E2,3.6650143E2,2.6379671E1,5.7966064E2,2.0886799E1,4.5910278E2,1.7373135E2,7.006262E0,1.2628413E2,5.7159524E0,5.1226337E2,1.3484541E2,2.6277438E2,1.0372704E2,1.9006706E1,7.372965E0,5.310732E2,4.8587425E1,1.4485236E0,1.9438274E1,1.851981E2,2.7390466E2,1.4456303E2,2.9168324E1,5.778705E0,1.2275567E0,7.065991E1,5.5624214E1,3.2744504E2,1.8481834E2,6.2099117E1,7.27463E1,2.4129814E2,2.1476236E1,7.072761E1,3.299943E1,1.6295534E1,2.7111714E0,2.8785303E0,4.494435E0,3.645377E2,1.665355E2,2.903591E1,1.9551517E1,1.499811E1,4.440165E0,8.725852E1,9.7939575E1,2.4545197E2,2.84527E1],"tree_param":{"num_deleted":"0","num_feature":"25","num_nodes":"59","size_leaf_vector":"1"}},{"base_weights":[2.9269906E-3,-6.255545E-1,7.7200073E-1,4.5173362E-1,-9.575354E-1,1.0507859E0,4.1925916E-1,7.475977E-1,-1.554355E-1,-6.223012E-1,-1.546528E0,-4.0057026E-2,1.1005421E0,-1.2498112E0,4.978466E-1,8.421862E-1,-4.0799812E-3,2.904201E-1,-8.5852975E-1,-4.4365638E-1,-1.2927694E0,-1.7329885E0,-1.0625712E0,3.583525E-1,-9.863894E-1,1.1413444E0,6.4125156E-1,1.8152195E-3,-1.3600954E0,2.3207197E-1,6.762819E-1,6.554702E-3,9.717418E-3,3.600038E-3,-9.6196765E-3,-6.519961E-3,4.173058E-3,-3.1395715E-3,-1.1626883E-2,-5.099674E-4,-7.090695E-3,-8.624649E-3,-1.6436517E-2,-1.770462E-2,-1.2523281E-2,-8.097783E-3,-1.5650507E-2,5.3838575E-3,-5.757557E-3,2.0598269E-3,-1.6482092E-2,1.3264121E-2,1.0672022E-2,2.6356017E-3,1.1634697E-2,-1.6117929E-2,-3.7028657E-3,-5.171621E-4,4.8298E-3,7.4691866E-3,6.335453E-4],"categories":[],"categories_nodes":[],"categories_segments":[],"categories_sizes":[],"default_left":[0,0,0,0,0,0,0,0,0,0,0,0,0,0,0,0,0,0,0,0,0,0,0,0,0,0,0,0,0,0,0,0,0,0,0,0,0,0,0,0,0,0,0,0,0,0,0,0,0,0,0,0,0,0,0,0,0,0,0,0,0],"id":22,"left_children":[1,3,5,7,9,11,13,15,17,19,21,23,25,27,29,31,33,35,37,39,41,43,45,47,49,51,53,-1,55,57,59,-1,-1,-1,-1,-1,-1,-1,-1,-1,-1,-1,-1,-1,-1,-1,-1,-1,-1,-1,-1,-1,-1,-1,-1,-1,-1,-1,-1,-1,-1],"loss_changes":[1.1656327E3,4.750526E2,1.0620691E2,5.639763E1,1.9940839E2,3.288556E1,6.363613E1,1.4993187E1,3.2686886E1,7.7086655E1,3.1313171E1,1.0669036E1,1.0113403E1,3.701889E0,2.1635086E1,3.8930206E0,8.911479E0,7.9333935E0,6.3278694E0,5.347827E1,1.909996E1,2.5314941E0,1.2041046E1,3.671313E0,6.946582E0,5.859741E0,9.456564E0,0E0,4.4952927E0,1.3276699E1,1.1833389E1,0E0,0E0,0E0,0E0,0E0,0E0,0E0,0E0,0E0,0E0,0E0,0E0,0E0,0E0,0E0,0E0,0E0,0E0,0E0,0E0,0E0,0E0,0E0,0E0,0E0,0E0,0E0,0E0,0E0,0E0],"parents":[2147483647,0,0,1,1,2,2,3,3,4,4,5,5,6,6,7,7,8,8,9,9,10,10,11,11,12,12,13,13,14,14,15,15,16,16,17,17,18,18,19,19,20,20,21,21,22,22,23,23,24,24,25,25,26,26,28,28,29,29,30,30],"right_children":[2,4,6,8,10,12,14,16,18,20,22,24,26,28,30,32,34,36,38,40,42,44,46,48,50,52,54,-1,56,58,60,-1,-1,-1,-1,-1,-1,-1,-1,-1,-1,-1,-1,-1,-1,-1,-1,-1,-1,-1,-1,-1,-1,-1,-1,-1,-1,-1,-1,-1,-1],"split_conditions":[1E0,-1.0823982E0,-6.749042E-1,1E0,1E0,1E0,1E0,-3.2549414E-1,-1.2453958E0,1E0,8.918726E-1,-9.194006E-1,1E0,-6.341548E-1,1E0,1E0,-1.163897E0,-1.5129664E0,-1.4980192E0,1E0,1E0,1E0,1.6070621E0,3.2553962E-1,5.648995E-2,-1.2453958E0,9.63287E-1,1.8152195E-3,4.6670765E-1,1E0,9.5507175E-1,6.554702E-3,9.717418E-3,3.600038E-3,-9.6196765E-3,-6.519961E-3,4.173058E-3,-3.1395715E-3,-1.1626883E-2,-5.099674E-4,-7.090695E-3,-8.624649E-3,-1.6436517E-2,-1.770462E-2,-1.2523281E-2,-8.097783E-3,-1.5650507E-2,5.3838575E-3,-5.757557E-3,2.0598269E-3,-1.6482092E-2,1.3264121E-2,1.0672022E-2,2.6356017E-3,1.1634697E-2,-1.6117929E-2,-3.7028657E-3,-5.171621E-4,4.8298E-3,7.4691866E-3,6.335453E-4],"split_indices":[13,3,3,16,18,15,15,12,3,16,12,3,5,3,20,11,3,12,12,17,17,20,3,12,12,3,12,0,12,9,3,0,0,0,0,0,0,0,0,0,0,0,0,0,0,0,0,0,0,0,0,0,0,0,0,0,0,0,0,0,0],"split_type":[0,0,0,0,0,0,0,0,0,0,0,0,0,0,0,0,0,0,0,0,0,0,0,0,0,0,0,0,0,0,0,0,0,0,0,0,0,0,0,0,0,0,0,0,0,0,0,0,0,0,0,0,0,0,0,0,0,0,0,0,0],"sum_hessian":[2.4095786E3,1.3260923E3,1.0834865E3,3.12302E2,1.0137903E3,6.0408E2,4.794064E2,2.0982585E2,1.02476166E2,6.473804E2,3.664099E2,2.636021E1,5.777198E2,2.0887434E1,4.5851895E2,1.8626633E2,2.355952E1,6.3068962E1,3.94072E1,5.124902E2,1.3489021E2,2.626387E2,1.0377122E2,1.8987658E1,7.372552E0,5.2922E2,4.84998E1,1.4480355E0,1.94394E1,1.8510727E2,2.734117E2,7.8783104E1,1.0748323E2,1.7523266E1,6.0362535E0,6.9928226E0,5.6076138E1,1.4850586E1,2.4556616E1,2.0717776E2,3.0531238E2,6.2141254E1,7.274896E1,2.4115428E2,2.1484411E1,7.077602E1,3.29952E1,1.627464E1,2.713019E0,2.8773391E0,4.495213E0,1.4654263E2,3.8267737E2,2.9017647E1,1.9482155E1,1.4997349E1,4.4420505E0,8.7234764E1,9.7872505E1,2.4496243E2,2.8449268E1],"tree_param":{"num_deleted":"0","num_feature":"25","num_nodes":"61","size_leaf_vector":"1"}},{"base_weights":[2.8760456E-3,-6.1949927E-1,7.6611847E-1,4.4783318E-1,-9.478955E-1,1.1078975E0,4.806848E-1,7.4167955E-1,-1.5406696E-1,-6.1584455E-1,-1.5317827E0,3.2109603E-1,1.1392103E0,-1.1954005E0,5.661725E-1,8.357471E-1,-4.2820172E-3,2.8767738E-1,-8.49716E-1,-2.5579482E-1,-9.4252706E-1,-1.7169117E0,-1.051796E0,-1.7528205E-1,6.79151E-1,1.3221451E0,1.0485518E0,2.7939491E-2,-1.3590485E0,6.3315207E-1,-2.0038448E-2,6.501381E-3,9.646462E-3,3.5687285E-3,-9.523028E-3,-6.456057E-3,4.1358527E-3,-3.1092502E-3,-1.1504541E-2,-5.0582252E-3,1.0736411E-3,-1.0602058E-2,2.7155355E-4,-1.7541433E-2,-1.2400069E-2,-8.012817E-3,-1.5502383E-2,7.6399436E-3,-1.208838E-2,1.1088228E-2,-5.7127206E-3,1.3498466E-2,2.0754815E-3,6.540425E-3,1.1713929E-2,8.154049E-3,-1.0886917E-2,2.0043328E-3,-1.46104675E-2,3.9592655E-3,7.816187E-3,-7.6190555E-3,3.044351E-3],"categories":[],"categories_nodes":[],"categories_segments":[],"categories_sizes":[],"default_left":[0,0,0,0,0,0,0,0,0,0,0,0,0,0,0,0,0,0,0,0,0,0,0,0,0,0,0,0,0,0,0,0,0,0,0,0,0,0,0,0,0,0,0,0,0,0,0,0,0,0,0,0,0,0,0,0,0,0,0,0,0,0,0],"id":23,"left_children":[1,3,5,7,9,11,13,15,17,19,21,23,25,27,29,31,33,35,37,39,41,43,45,47,49,51,53,55,57,59,61,-1,-1,-1,-1,-1,-1,-1,-1,-1,-1,-1,-1,-1,-1,-1,-1,-1,-1,-1,-1,-1,-1,-1,-1,-1,-1,-1,-1,-1,-1,-1,-1],"loss_changes":[1.1442056E3,4.6548236E2,1.0501495E2,5.5448612E1,1.9583557E2,1.1745728E1,8.540483E1,1.4767487E1,3.203778E1,7.605765E1,3.0829834E1,3.7106476E0,6.44812E0,5.84729E0,2.2130539E1,3.8430634E0,8.747292E0,7.7904825E0,6.1942253E0,2.8197914E1,3.8795227E1,2.5029907E0,1.1844948E1,9.916201E0,7.051121E0,4.434601E0,1.4775177E1,4.7598763E0,4.367176E0,1.7496964E1,1.436975E1,0E0,0E0,0E0,0E0,0E0,0E0,0E0,0E0,0E0,0E0,0E0,0E0,0E0,0E0,0E0,0E0,0E0,0E0,0E0,0E0,0E0,0E0,0E0,0E0,0E0,0E0,0E0,0E0,0E0,0E0,0E0,0E0],"parents":[2147483647,0,0,1,1,2,2,3,3,4,4,5,5,6,6,7,7,8,8,9,9,10,10,11,11,12,12,13,13,14,14,15,15,16,16,17,17,18,18,19,19,20,20,21,21,22,22,23,23,24,24,25,25,26,26,27,27,28,28,29,29,30,30],"right_children":[2,4,6,8,10,12,14,16,18,20,22,24,26,28,30,32,34,36,38,40,42,44,46,48,50,52,54,56,58,60,62,-1,-1,-1,-1,-1,-1,-1,-1,-1,-1,-1,-1,-1,-1,-1,-1,-1,-1,-1,-1,-1,-1,-1,-1,-1,-1,-1,-1,-1,-1,-1,-1],"split_conditions":[1E0,-1.0823982E0,-8.786512E-1,1E0,1E0,1E0,1E0,-3.2549414E-1,-1.2453958E0,1E0,8.918726E-1,1.5779878E-1,-1.2453958E0,1.8291539E-2,9.143223E-1,1E0,-1.163897E0,-1.5129664E0,-1.4980192E0,1E0,1.2838215E0,1E0,1.6070621E0,-1.0823982E0,3.2553962E-1,1E0,3.5543403E-1,-6.341548E-1,-8.3790183E-1,1E0,1E0,6.501381E-3,9.646462E-3,3.5687285E-3,-9.523028E-3,-6.456057E-3,4.1358527E-3,-3.1092502E-3,-1.1504541E-2,-5.0582252E-3,1.0736411E-3,-1.0602058E-2,2.7155355E-4,-1.7541433E-2,-1.2400069E-2,-8.012817E-3,-1.5502383E-2,7.6399436E-3,-1.208838E-2,1.1088228E-2,-5.7127206E-3,1.3498466E-2,2.0754815E-3,6.540425E-3,1.1713929E-2,8.154049E-3,-1.0886917E-2,2.0043328E-3,-1.46104675E-2,3.9592655E-3,7.816187E-3,-7.6190555E-3,3.044351E-3],"split_indices":[13,3,3,16,18,15,15,12,3,5,12,12,3,12,3,11,3,12,12,20,12,20,3,3,12,8,12,3,3,20,9,0,0,0,0,0,0,0,0,0,0,0,0,0,0,0,0,0,0,0,0,0,0,0,0,0,0,0,0,0,0,0,0],"split_type":[0,0,0,0,0,0,0,0,0,0,0,0,0,0,0,0,0,0,0,0,0,0,0,0,0,0,0,0,0,0,0,0,0,0,0,0,0,0,0,0,0,0,0,0,0,0,0,0,0,0,0,0,0,0,0,0,0,0,0,0,0,0,0],"sum_hessian":[2.4067368E3,1.325811E3,1.0809257E3,3.1186002E2,1.01395105E3,4.9059927E2,5.903264E2,2.0939943E2,1.0246058E2,6.4767773E2,3.6627332E2,1.9208138E1,4.7139114E2,2.8017992E1,5.623084E2,1.8584372E2,2.3555708E1,6.3025314E1,3.9435265E1,3.0895224E2,3.387255E2,2.6246475E2,1.0380858E2,8.263189E0,1.0944948E1,1.5170015E2,3.1969098E2,3.4036336E0,2.4614359E1,5.045762E2,5.7732216E1,7.8643845E1,1.07199875E2,1.750907E1,6.0466375E0,7.001274E0,5.602404E1,1.4855176E1,2.458009E1,1.8274388E2,1.2620837E2,3.0198395E2,3.6741543E1,2.4097392E2,2.1490816E1,7.0821625E1,3.2986954E1,4.465676E0,3.797513E0,8.23014E0,2.7148085E0,1.4781537E2,3.8847792E0,7.7409966E1,2.4228102E2,2.1542132E0,1.2494205E0,1.4518296E0,2.3162529E1,1.9564081E2,3.089354E2,1.7156942E1,4.057527E1],"tree_param":{"num_deleted":"0","num_feature":"25","num_nodes":"63","size_leaf_vector":"1"}},{"base_weights":[2.8370724E-3,-6.135162E-1,7.602892E-1,3.071058E-1,-9.868572E-1,1.0490716E0,4.2593363E-1,7.162479E-1,-2.1140127E-1,-6.604073E-1,-1.5113697E0,1.3787927E-2,1.0969231E0,-1.2499979E0,5.04046E-1,7.714075E-1,-7.072052E-1,3.126667E-1,-5.996344E-1,-9.7412425E-1,-2.1647839E-1,-1.6969129E0,-1.041196E0,7.222562E-1,-4.2133397E-1,1.3147237E0,1.01179E0,-1.7290985E-2,-8.84933E-1,2.5848573E-1,6.70679E-1,9.005951E-3,4.4841077E-3,-1.6690504E-2,-4.7206855E-4,2.845568E-4,7.3639713E-3,2.8531307E-3,-9.600256E-3,-4.44298E-3,-1.5032338E-2,-5.1604176E-4,-6.574965E-3,-1.7344246E-2,-1.2279009E-2,-7.929045E-3,-1.5357432E-2,9.418068E-3,-1.4768355E-3,-9.031693E-3,1.5111134E-3,1.3423868E-2,2.0599773E-3,7.7632125E-3,1.1616266E-2,1.380057E-3,-1.2063133E-2,3.725061E-3,-3.5981701E-3,7.378035E-3,6.1833434E-4],"categories":[],"categories_nodes":[],"categories_segments":[],"categories_sizes":[],"default_left":[0,0,0,0,0,0,0,0,0,0,0,0,0,0,0,0,0,0,0,0,0,0,0,0,0,0,0,0,0,0,0,0,0,0,0,0,0,0,0,0,0,0,0,0,0,0,0,0,0,0,0,0,0,0,0,0,0,0,0,0,0],"id":24,"left_children":[1,3,5,7,9,11,13,15,17,19,21,23,25,27,29,31,33,35,37,39,41,43,45,47,49,51,53,-1,55,57,59,-1,-1,-1,-1,-1,-1,-1,-1,-1,-1,-1,-1,-1,-1,-1,-1,-1,-1,-1,-1,-1,-1,-1,-1,-1,-1,-1,-1,-1,-1],"loss_changes":[1.1231866E3,4.56219E2,1.0377295E2,8.1504684E1,1.6063824E2,2.8642395E1,6.633419E1,1.7393318E1,3.4757126E1,8.106976E1,2.9757385E1,8.494717E0,8.921753E0,2.4293709E0,1.9478157E1,8.235695E0,5.3339114E0,8.765822E0,3.1511528E1,9.51174E1,1.763137E1,2.401001E0,1.1655716E1,2.1402645E0,4.850691E0,4.3867188E0,1.3276611E1,0E0,5.0637445E0,1.3936137E1,1.1621689E1,0E0,0E0,0E0,0E0,0E0,0E0,0E0,0E0,0E0,0E0,0E0,0E0,0E0,0E0,0E0,0E0,0E0,0E0,0E0,0E0,0E0,0E0,0E0,0E0,0E0,0E0,0E0,0E0,0E0,0E0],"parents":[2147483647,0,0,1,1,2,2,3,3,4,4,5,5,6,6,7,7,8,8,9,9,10,10,11,11,12,12,13,13,14,14,15,15,16,16,17,17,18,18,19,19,20,20,21,21,22,22,23,23,24,24,25,25,26,26,28,28,29,29,30,30],"right_children":[2,4,6,8,10,12,14,16,18,20,22,24,26,28,30,32,34,36,38,40,42,44,46,48,50,52,54,-1,56,58,60,-1,-1,-1,-1,-1,-1,-1,-1,-1,-1,-1,-1,-1,-1,-1,-1,-1,-1,-1,-1,-1,-1,-1,-1,-1,-1,-1,-1,-1,-1],"split_conditions":[1E0,-9.194006E-1,-7.156536E-1,1E0,1E0,1E0,1E0,-2.2584613E-1,-1.2453958E0,2E0,8.918726E-1,-1.0823982E0,-1.2453958E0,1E0,1E0,-1.163897E0,1E0,1E0,1E0,1E0,1E0,1E0,1.6070621E0,3.1723562E-1,1.8603238E-1,1E0,5.1819247E-1,-1.7290985E-2,1.2956516E-1,7.9207414E-1,9.5507175E-1,9.005951E-3,4.4841077E-3,-1.6690504E-2,-4.7206855E-4,2.845568E-4,7.3639713E-3,2.8531307E-3,-9.600256E-3,-4.44298E-3,-1.5032338E-2,-5.1604176E-4,-6.574965E-3,-1.7344246E-2,-1.2279009E-2,-7.929045E-3,-1.5357432E-2,9.418068E-3,-1.4768355E-3,-9.031693E-3,1.5111134E-3,1.3423868E-2,2.0599773E-3,7.7632125E-3,1.1616266E-2,1.380057E-3,-1.2063133E-2,3.725061E-3,-3.5981701E-3,7.378035E-3,6.1833434E-4],"split_indices":[13,3,3,8,18,15,15,12,3,10,12,3,3,10,20,3,10,11,10,17,2,20,3,12,12,8,12,0,12,3,3,0,0,0,0,0,0,0,0,0,0,0,0,0,0,0,0,0,0,0,0,0,0,0,0,0,0,0,0,0,0],"split_type":[0,0,0,0,0,0,0,0,0,0,0,0,0,0,0,0,0,0,0,0,0,0,0,0,0,0,0,0,0,0,0,0,0,0,0,0,0,0,0,0,0,0,0,0,0,0,0,0,0,0,0,0,0,0,0,0,0,0,0,0,0],"sum_hessian":[2.4038423E3,1.3254712E3,1.0783712E3,3.8248303E2,9.4298816E2,5.774721E2,5.0089914E2,2.1357472E2,1.6890831E2,5.8262744E2,3.6036072E2,2.5568932E1,5.5190314E2,2.1638313E1,4.7926083E2,2.0604831E2,7.5264077E0,7.196239E1,9.694592E1,3.4068024E2,2.419472E2,2.565214E2,1.0383932E2,9.47758E0,1.609135E1,1.5104167E2,4.0086148E2,7.741793E0,1.3896521E1,1.9477698E2,2.8448386E2,1.4590363E2,6.0144688E1,2.4406571E0,5.0857506E0,4.3711018E1,2.8251373E1,2.811567E1,6.883025E1,1.7114406E2,1.6953616E2,1.7692206E2,6.502515E1,2.350259E2,2.1495499E1,7.086451E1,3.297481E1,7.501724E0,1.9758567E0,8.423463E0,7.667888E0,1.4715926E2,3.8824198E0,1.5828973E2,2.4257176E2,3.4585857E0,1.0437935E1,1.6478645E2,2.9990517E1,2.5604352E2,2.8440323E1],"tree_param":{"num_deleted":"0","num_feature":"25","num_nodes":"61","size_leaf_vector":"1"}},{"base_weights":[2.7905924E-3,-6.0762334E-1,7.545108E-1,4.4042253E-1,-9.2912346E-1,1.0938392E0,4.7223422E-1,7.951827E-1,-4.3962907E-2,-6.0317427E-1,-1.5033964E0,3.1645447E-1,1.1249492E0,-1.1737189E0,5.564624E-1,8.2482755E-1,-3.7886637E-1,4.8680022E-2,-1.7887559E-2,-8.3076835E-1,-9.900682E-2,-1.68612E0,-1.0307668E0,-1.7483273E-1,6.71766E-1,1.3074149E0,1.0347421E0,3.4112208E-2,-1.3353766E0,6.224731E-1,-1.9242888E-2,7.425104E-3,1.2031169E-2,-1.3216253E-2,2.5187882E-3,3.6354044E-3,-3.4899067E-3,-1.0925014E-2,-3.4278801E-3,2.9939073E-3,-5.4685855E-3,-1.722933E-2,-1.2160043E-2,-7.846443E-3,-1.5215546E-2,7.526895E-3,